speaker_id,0,1,2,3,4,5,6,7,8,9,10,11,12,13,14,15,16,17,18,19,20,21,22,23,24,25,26,27,28,29,30,31,32,33,34,35,36,37,38,39,40,41,42,43,44,45,46,47,48,49,50,51,52,53,54,55,56,57,58,59,60,61,62,63,64,65,66,67,68,69,70,71,72,73,74,75,76,77,78,79,80,81,82,83,84,85,86,87,88,89,90,91,92,93,94,95,96,97,98,99,100,101,102,103,104,105,106,107,108,109,110,111,112,113,114,115,116,117,118,119,120,121,122,123,124,125,126,127,128,129,130,131,132,133,134,135,136,137,138,139,140,141,142,143,144,145,146,147,148,149,150,151,152,153,154,155,156,157,158,159,160,161,162,163,164,165,166,167,168,169,170,171,172,173,174,175,176,177,178,179,180,181,182,183,184,185,186,187,188,189,190,191,192,193,194,195,196,197,198,199,200,201,202,203,204,205,206,207,208,209,210,211,212,213,214,215,216,217,218,219,220,221,222,223,224,225,226,227,228,229,230,231,232,233,234,235,236,237,238,239,240,241,242,243,244,245,246,247,248,249,250,251,252,253,254,255,256,257,258,259,260,261,262,263,264,265,266,267,268,269,270,271,272,273,274,275,276,277,278,279,280,281,282,283,284,285,286,287,288,289,290,291,292,293,294,295,296,297,298,299,300,301,302,303,304,305,306,307,308,309,310,311,312,313,314,315,316,317,318,319,320,321,322,323,324,325,326,327,328,329,330,331,332,333,334,335,336,337,338,339,340,341,342,343,344,345,346,347,348,349,350,351,352,353,354,355,356,357,358,359,360,361,362,363,364,365,366,367,368,369,370,371,372,373,374,375,376,377,378,379,380,381,382,383,384,385,386,387,388,389,390,391,392,393,394,395,396,397,398,399,400,401,402,403,404,405,406,407,408,409,410,411,412,413,414,415,416,417,418,419,420,421,422,423,424,425,426,427,428,429,430,431,432,433,434,435,436,437,438,439,440,441,442,443,444,445,446,447,448,449,450,451,452,453,454,455,456,457,458,459,460,461,462,463,464,465,466,467,468,469,470,471,472,473,474,475,476,477,478,479,480,481,482,483,484,485,486,487,488,489,490,491,492,493,494,495,496,497,498,499,500,501,502,503,504,505,506,507,508,509,510,511,512,513,514,515,516,517,518,519,520,521,522,523,524,525,526,527,528,529,530,531,532,533,534,535,536,537,538,539,540,541,542,543,544,545,546,547,548,549,550,551,552,553,554,555,556,557,558,559,560,561,562,563,564,565,566,567,568,569,570,571,572,573,574,575,576,577,578,579,580,581,582,583,584,585,586,587,588,589,590,591,592,593,594,595,596,597,598,599,600,601,602,603,604,605,606,607,608,609,610,611,612,613,614,615,616,617,618,619,620,621,622,623,624,625,626,627,628,629,630,631,632,633,634,635,636,637,638,639,640,641,642,643,644,645,646,647,648,649,650,651,652,653,654,655,656,657,658,659,660,661,662,663,664,665,666,667,668,669,670,671,672,673,674,675,676,677,678,679,680,681,682,683,684,685,686,687,688,689,690,691,692,693,694,695,696,697,698,699,700,701,702,703,704,705,706,707,708,709,710,711,712,713,714,715,716,717,718,719,720,721,722,723,724,725,726,727,728,729,730,731,732,733,734,735,736,737,738,739,740,741,742,743,744,745,746,747,748,749,750,751,752,753,754,755,756,757,758,759,760,761,762,763,764,765,766,767,768,769,770,771,772,773,774,775,776,777,778,779,780,781,782,783,784,785,786,787,788,789,790,791,792,793,794,795,796,797,798,799,800,801,802,803,804,805,806,807,808,809,810,811,812,813,814,815,816,817,818,819,820,821,822,823,824,825,826,827,828,829,830,831,832,833,834,835,836,837,838,839,840,841,842,843,844,845,846,847,848,849,850,851,852,853,854,855,856,857,858,859,860,861,862,863,864,865,866,867,868,869,870,871,872,873,874,875,876,877,878,879,880,881,882,883,884,885,886,887,888,889,890,891,892,893,894,895,896,897,898,899,900,901,902,903,904,905,906,907,908,909,910,911,912,913,914,915,916,917,918,919,920,921,922,923,924,925,926,927,928,929,930,931,932,933,934,935,936,937,938,939,940,941,942,943,944,945,946,947,948,949,950,951,952,953,954,955,956,957,958,959,960,961,962,963,964,965,966,967,968,969,970,971,972,973,974,975,976,977,978,979,980,981,982,983,984,985,986,987,988,989,990,991,992,993,994,995,996,997,998,999,1000,1001,1002,1003,1004,1005,1006,1007,1008,1009,1010,1011,1012,1013,1014,1015,1016,1017,1018,1019,1020,1021,1022,1023,1024,1025,1026,1027,1028,1029,1030,1031,1032,1033,1034,1035,1036,1037,1038,1039,1040,1041,1042,1043,1044,1045,1046,1047,1048,1049,1050,1051,1052,1053,1054,1055,1056,1057,1058,1059,1060,1061,1062,1063,1064,1065,1066,1067,1068,1069,1070,1071,1072,1073,1074,1075,1076,1077,1078,1079,1080,1081,1082,1083,1084,1085,1086,1087,1088,1089,1090,1091,1092,1093,1094,1095,1096,1097,1098,1099,1100,1101,1102,1103,1104,1105,1106,1107,1108,1109,1110,1111,1112,1113,1114,1115,1116,1117,1118,1119,1120,1121,1122,1123,1124,1125,1126,1127,1128,1129,1130,1131,1132,1133,1134,1135,1136,1137,1138,1139,1140,1141,1142,1143,1144,1145,1146,1147,1148,1149,1150,1151,1152,1153,1154,1155,1156,1157,1158,1159,1160,1161,1162,1163,1164,1165,1166,1167,1168,1169,1170,1171,1172,1173,1174,1175,1176,1177,1178,1179,1180,1181,1182,1183,1184,1185,1186,1187,1188,1189,1190,1191,1192,1193,1194,1195,1196,1197,1198,1199,1200,1201,1202,1203,1204,1205,1206,1207,1208,1209,1210,1211,1212,1213,1214,1215,1216,1217,1218,1219,1220,1221,1222,1223,1224,1225,1226,1227,1228,1229,1230,1231,1232,1233,1234,1235,1236,1237,1238,1239,1240,1241,1242,1243,1244,1245,1246,1247,1248,1249,1250,1251,1252,1253,1254,1255,1256,1257,1258,1259,1260,1261,1262,1263,1264,1265,1266,1267,1268,1269,1270,1271,1272,1273,1274,1275,1276,1277,1278,1279,1280,1281,1282,1283,1284,1285,1286,1287,1288,1289,1290,1291,1292,1293,1294,1295,1296,1297,1298,1299,1300,1301,1302,1303,1304,1305,1306,1307,1308,1309,1310,1311,1312,1313,1314,1315,1316,1317,1318,1319,1320,1321,1322,1323,1324,1325,1326,1327,1328,1329,1330,1331,1332,1333,1334,1335,1336,1337,1338,1339,1340,1341,1342,1343,1344,1345,1346,1347,1348,1349,1350,1351,1352,1353,1354,1355,1356,1357,1358,1359,1360,1361,1362,1363,1364,1365,1366,1367,1368,1369,1370,1371,1372,1373,1374,1375,1376,1377,1378,1379,1380,1381,1382,1383,1384,1385,1386,1387,1388,1389,1390,1391,1392,1393,1394,1395,1396,1397,1398,1399,1400,1401,1402,1403,1404,1405,1406,1407,1408,1409,1410,1411,1412,1413,1414,1415,1416,1417,1418,1419,1420,1421,1422,1423,1424,1425,1426,1427,1428,1429,1430,1431,1432,1433,1434,1435,1436,1437,1438,1439,1440,1441,1442,1443,1444,1445,1446,1447,1448,1449,1450,1451,1452,1453,1454,1455,1456,1457,1458,1459,1460,1461,1462,1463,1464,1465,1466,1467,1468,1469,1470,1471,1472,1473,1474,1475,1476,1477,1478,1479,1480,1481,1482,1483,1484,1485,1486,1487,1488,1489,1490,1491,1492,1493,1494,1495,1496,1497,1498,1499,1500,1501,1502,1503,1504,1505,1506,1507,1508,1509,1510,1511,1512,1513,1514,1515,1516,1517,1518,1519,1520,1521,1522,1523,1524,1525,1526,1527,1528,1529,1530,1531,1532,1533,1534,1535,1536,1537,1538,1539,1540,1541,1542,1543,1544,1545,1546,1547,1548,1549,1550,1551,1552,1553,1554,1555,1556,1557,1558,1559,1560,1561,1562,1563,1564,1565,1566,1567,1568,1569,1570,1571,1572,1573,1574,1575,1576,1577,1578,1579,1580,1581,1582,1583,1584,1585,1586,1587,1588,1589,1590,1591,1592,1593,1594,1595,1596,1597,1598,1599,1600,1601,1602,1603,1604,1605,1606,1607,1608,1609,1610,1611,1612,1613,1614,1615,1616,1617,1618,1619,1620,1621,1622,1623,1624,1625,1626,1627,1628,1629,1630,1631,1632,1633,1634,1635,1636,1637,1638,1639,1640,1641,1642,1643,1644,1645,1646,1647,1648,1649,1650,1651,1652,1653,1654,1655,1656,1657,1658,1659,1660,1661,1662,1663,1664,1665,1666,1667,1668,1669,1670,1671,1672,1673,1674,1675,1676,1677,1678,1679,1680,1681,1682,1683,1684,1685,1686,1687,1688,1689,1690,1691,1692,1693,1694,1695,1696,1697,1698,1699,1700,1701,1702,1703,1704,1705,1706,1707,1708,1709,1710,1711,1712,1713,1714,1715,1716,1717,1718,1719,1720,1721,1722,1723,1724,1725,1726,1727,1728,1729,1730,1731,1732,1733,1734,1735,1736,1737,1738,1739,1740,1741,1742,1743,1744,1745,1746,1747,1748,1749,1750,1751,1752,1753,1754,1755,1756,1757,1758,1759,1760,1761,1762,1763,1764,1765,1766,1767,1768,1769,1770,1771,1772,1773,1774,1775,1776,1777,1778,1779,1780,1781,1782,1783,1784,1785,1786,1787,1788,1789,1790,1791,1792,1793,1794,1795,1796,1797,1798,1799,1800,1801,1802,1803,1804,1805,1806,1807,1808,1809,1810,1811,1812,1813,1814,1815,1816,1817,1818,1819,1820,1821,1822,1823,1824,1825,1826,1827,1828,1829,1830,1831,1832,1833,1834,1835,1836,1837,1838,1839,1840,1841,1842,1843,1844,1845,1846,1847,1848,1849,1850,1851,1852,1853,1854,1855,1856,1857,1858,1859,1860,1861,1862,1863,1864,1865,1866,1867,1868,1869,1870,1871,1872,1873,1874,1875,1876,1877,1878,1879,1880,1881,1882,1883,1884,1885,1886,1887,1888,1889,1890,1891,1892,1893,1894,1895,1896,1897,1898,1899,1900,1901,1902,1903,1904,1905,1906,1907,1908,1909,1910,1911,1912,1913,1914,1915,1916,1917,1918,1919,1920,1921,1922,1923,1924,1925,1926,1927,1928,1929,1930,1931,1932,1933,1934,1935,1936,1937,1938,1939,1940,1941,1942,1943,1944,1945,1946,1947,1948,1949,1950,1951,1952,1953,1954,1955,1956,1957,1958,1959,1960,1961,1962,1963,1964,1965,1966,1967,1968,1969,1970,1971,1972,1973,1974,1975,1976,1977,1978,1979,1980,1981,1982,1983,1984,1985,1986,1987,1988,1989,1990,1991,1992,1993,1994,1995,1996,1997,1998,1999,2000,2001,2002,2003,2004,2005,2006,2007,2008,2009,2010,2011,2012,2013,2014,2015,2016,2017,2018,2019,2020,2021,2022,2023,2024,2025,2026,2027,2028,2029,2030,2031,2032,2033,2034,2035,2036,2037,2038,2039,2040,2041,2042,2043,2044,2045,2046,2047,2048,2049,2050,2051,2052,2053,2054,2055,2056,2057,2058,2059,2060,2061,2062,2063,2064,2065,2066,2067,2068,2069,2070,2071,2072,2073,2074,2075,2076,2077,2078,2079,2080,2081,2082,2083,2084,2085,2086,2087,2088,2089,2090,2091,2092,2093,2094,2095,2096,2097,2098,2099,2100,2101,2102,2103,2104,2105,2106,2107,2108,2109,2110,2111,2112,2113,2114,2115,2116,2117,2118,2119,2120,2121,2122,2123,2124,2125,2126,2127,2128,2129,2130,2131,2132,2133,2134,2135,2136,2137,2138,2139,2140,2141,2142,2143,2144,2145,2146,2147,2148,2149,2150,2151,2152,2153,2154,2155,2156,2157,2158,2159,2160,2161,2162,2163,2164,2165,2166,2167,2168,2169,2170,2171,2172,2173,2174,2175,2176,2177,2178,2179,2180,2181,2182,2183,2184,2185,2186,2187,2188,2189,2190,2191,2192,2193,2194,2195,2196,2197,2198,2199,2200,2201,2202,2203,2204,2205,2206,2207,2208,2209,2210,2211,2212,2213,2214,2215,2216,2217,2218,2219,2220,2221,2222,2223,2224,2225,2226,2227,2228,2229,2230,2231,2232,2233,2234,2235,2236,2237,2238,2239,2240,2241,2242,2243,2244,2245,2246,2247,2248,2249,2250,2251,2252,2253,2254,2255,2256,2257,2258,2259,2260,2261,2262,2263,2264,2265,2266,2267,2268,2269,2270,2271,2272,2273,2274,2275,2276,2277,2278,2279,2280,2281,2282,2283,2284,2285,2286,2287,2288,2289,2290,2291,2292,2293,2294,2295,2296,2297,2298,2299,2300,2301,2302,2303,2304,2305,2306,2307,2308,2309,2310,2311,2312,2313,2314,2315,2316,2317,2318,2319,2320,2321,2322,2323,2324,2325,2326,2327,2328,2329,2330,2331,2332,2333,2334,2335,2336,2337,2338,2339,2340,2341,2342,2343,2344,2345,2346,2347,2348,2349,2350,2351,2352,2353,2354,2355,2356,2357,2358,2359,2360,2361,2362,2363,2364,2365,2366,2367,2368,2369,2370,2371,2372,2373,2374,2375,2376,2377,2378,2379,2380,2381,2382,2383,2384,2385,2386,2387,2388,2389,2390,2391,2392,2393,2394,2395,2396,2397,2398,2399,2400,2401,2402,2403,2404,2405,2406,2407,2408,2409,2410,2411,2412,2413,2414,2415,2416,2417,2418,2419,2420,2421,2422,2423,2424,2425,2426,2427,2428,2429,2430,2431,2432,2433,2434,2435,2436,2437,2438,2439,2440,2441,2442,2443,2444,2445,2446,2447,2448,2449,2450,2451,2452,2453,2454,2455,2456,2457,2458,2459,2460,2461,2462,2463,2464,2465,2466,2467,2468,2469,2470,2471,2472,2473,2474,2475,2476,2477,2478,2479,2480,2481,2482,2483,2484,2485,2486,2487,2488,2489,2490,2491,2492,2493,2494,2495,2496,2497,2498,2499,2500,2501,2502,2503,2504,2505,2506,2507,2508,2509,2510,2511,2512,2513,2514,2515,2516,2517,2518,2519,2520,2521,2522,2523,2524,2525,2526,2527,2528,2529,2530,2531,2532,2533,2534,2535,2536,2537,2538,2539,2540,2541,2542,2543,2544,2545,2546,2547,2548,2549,2550,2551,2552,2553,2554,2555,2556,2557,2558,2559,2560,2561,2562,2563,2564,2565,2566,2567,2568,2569,2570,2571,2572,2573,2574,2575,2576,2577,2578,2579,2580,2581,2582,2583,2584,2585,2586,2587,2588,2589,2590,2591,2592,2593,2594,2595,2596,2597,2598,2599,2600,2601,2602,2603,2604,2605,2606,2607,2608,2609,2610,2611,2612,2613,2614,2615,2616,2617,2618,2619,2620,2621,2622,2623,2624,2625,2626,2627,2628,2629,2630,2631,2632,2633,2634,2635,2636,2637,2638,2639,2640,2641,2642,2643,2644,2645,2646,2647,2648,2649,2650,2651,2652,2653,2654,2655,2656,2657,2658,2659,2660,2661,2662,2663,2664,2665,2666,2667,2668,2669,2670,2671,2672,2673,2674,2675,2676,2677,2678,2679,2680,2681,2682,2683,2684,2685,2686,2687,2688,2689,2690,2691,2692,2693,2694,2695,2696,2697,2698,2699,2700,2701,2702,2703,2704,2705,2706,2707,2708,2709,2710,2711,2712,2713,2714,2715,2716,2717,2718,2719,2720,2721,2722,2723,2724,2725,2726,2727,2728,2729,2730,2731,2732,2733,2734,2735,2736,2737,2738,2739,2740,2741,2742,2743,2744,2745,2746,2747,2748,2749,2750,2751,2752,2753,2754,2755,2756,2757,2758,2759,2760,2761,2762,2763,2764,2765,2766,2767,2768,2769,2770,2771,2772,2773,2774,2775,2776,2777,2778,2779,2780,2781,2782,2783,2784,2785,2786,2787,2788,2789,2790,2791,2792,2793,2794,2795,2796,2797,2798,2799,2800,2801,2802,2803,2804,2805,2806,2807,2808,2809,2810,2811,2812,2813,2814,2815,2816,2817,2818,2819,2820,2821,2822,2823,2824,2825,2826,2827,2828,2829,2830,2831,2832,2833,2834,2835,2836,2837,2838,2839,2840,2841,2842,2843,2844,2845,2846,2847,2848,2849,2850,2851,2852,2853,2854,2855,2856,2857,2858,2859,2860,2861,2862,2863,2864,2865,2866,2867,2868,2869,2870,2871,2872,2873,2874,2875,2876,2877,2878,2879,2880,2881,2882,2883,2884,2885,2886,2887,2888,2889,2890,2891,2892,2893,2894,2895,2896,2897,2898,2899,2900,2901,2902,2903,2904,2905,2906,2907,2908,2909,2910,2911,2912,2913,2914,2915,2916,2917,2918,2919,2920,2921,2922,2923,2924,2925,2926,2927,2928,2929,2930,2931,2932,2933,2934,2935,2936,2937,2938,2939,2940,2941,2942,2943,2944,2945,2946,2947,2948,2949,2950,2951,2952,2953,2954,2955,2956,2957,2958,2959,2960,2961,2962,2963,2964,2965,2966,2967,2968,2969,2970,2971,2972,2973,2974,2975,2976,2977,2978,2979,2980,2981,2982,2983,2984,2985,2986,2987,2988,2989,2990,2991,2992,2993,2994,2995,2996,2997,2998,2999,3000,3001,3002,3003,3004,3005,3006,3007,3008,3009,3010,3011,3012,3013,3014,3015,3016,3017,3018,3019,3020,3021,3022,3023,3024,3025,3026,3027,3028,3029,3030,3031,3032,3033,3034,3035,3036,3037,3038,3039,3040,3041,3042,3043,3044,3045,3046,3047,3048,3049,3050,3051,3052,3053,3054,3055,3056,3057,3058,3059,3060,3061,3062,3063,3064,3065,3066,3067,3068,3069,3070,3071,3072,3073,3074,3075,3076,3077,3078,3079,3080,3081,3082,3083,3084,3085,3086,3087,3088,3089,3090,3091,3092,3093,3094,3095,3096,3097,3098,3099,3100,3101,3102,3103,3104,3105,3106,3107,3108,3109,3110,3111,3112,3113,3114,3115,3116,3117,3118,3119,3120,3121,3122,3123,3124,3125,3126,3127,3128,3129,3130,3131,3132,3133,3134,3135,3136,3137,3138,3139,3140,3141,3142,3143,3144,3145,3146,3147,3148,3149,3150,3151,3152,3153,3154,3155,3156,3157,3158,3159,3160,3161,3162,3163,3164,3165,3166,3167,3168,3169,3170,3171,3172,3173,3174,3175,3176,3177,3178,3179,3180,3181,3182,3183,3184,3185,3186,3187,3188,3189,3190,3191,3192,3193,3194,3195,3196,3197,3198,3199,3200,3201,3202,3203,3204,3205,3206,3207,3208,3209,3210,3211,3212,3213,3214,3215,3216,3217,3218,3219,3220,3221,3222,3223,3224,3225,3226,3227,3228,3229,3230,3231,3232,3233,3234,3235,3236,3237,3238,3239,3240,3241,3242,3243,3244,3245,3246,3247,3248,3249,3250,3251,3252,3253,3254,3255,3256,3257,3258,3259,3260,3261,3262,3263,3264,3265,3266,3267,3268,3269,3270,3271,3272,3273,3274,3275,3276,3277,3278,3279,3280,3281,3282,3283,3284,3285,3286,3287,3288,3289,3290,3291,3292,3293,3294,3295,3296,3297,3298,3299,3300,3301,3302,3303,3304,3305,3306,3307,3308,3309,3310,3311,3312,3313,3314,3315,3316,3317,3318,3319,3320,3321,3322,3323,3324,3325,3326,3327,3328,3329,3330,3331,3332,3333,3334,3335,3336,3337,3338,3339,3340,3341,3342,3343,3344,3345,3346,3347,3348,3349,3350,3351,3352,3353,3354,3355,3356,3357,3358,3359,3360,3361,3362,3363,3364,3365,3366,3367,3368,3369,3370,3371,3372,3373,3374,3375,3376,3377,3378,3379,3380,3381,3382,3383,3384,3385,3386,3387,3388,3389,3390,3391,3392,3393,3394,3395,3396,3397,3398,3399,3400,3401,3402,3403,3404,3405,3406,3407,3408,3409,3410,3411,3412,3413,3414,3415,3416,3417,3418,3419,3420,3421,3422,3423,3424,3425,3426,3427,3428,3429,3430,3431,3432,3433,3434,3435,3436,3437,3438,3439,3440,3441,3442,3443,3444,3445,3446,3447,3448,3449,3450,3451,3452,3453,3454,3455,3456,3457,3458,3459,3460,3461,3462,3463,3464,3465,3466,3467,3468,3469,3470,3471,3472,3473,3474,3475,3476,3477,3478,3479,3480,3481,3482,3483,3484,3485,3486,3487,3488,3489,3490,3491,3492,3493,3494,3495,3496,3497,3498,3499,3500,3501,3502,3503,3504,3505,3506,3507,3508,3509,3510,3511,3512,3513,3514,3515,3516,3517,3518,3519,3520,3521,3522,3523,3524,3525,3526,3527,3528,3529,3530,3531,3532,3533,3534,3535,3536,3537,3538,3539,3540,3541,3542,3543,3544,3545,3546,3547,3548,3549,3550,3551,3552,3553,3554,3555,3556,3557,3558,3559,3560,3561,3562,3563,3564,3565,3566,3567,3568,3569,3570,3571,3572,3573,3574,3575,3576,3577,3578,3579,3580,3581,3582,3583,3584,3585,3586,3587,3588,3589,3590,3591,3592,3593,3594,3595,3596,3597,3598,3599,3600,3601,3602,3603,3604,3605,3606,3607,3608,3609,3610,3611,3612,3613,3614,3615,3616,3617,3618,3619,3620,3621,3622,3623,3624,3625,3626,3627,3628,3629,3630,3631,3632,3633,3634,3635,3636,3637,3638,3639,3640,3641,3642,3643,3644,3645,3646,3647,3648,3649,3650,3651,3652,3653,3654,3655,3656,3657,3658,3659,3660,3661,3662,3663,3664,3665,3666,3667,3668,3669,3670,3671,3672,3673,3674,3675,3676,3677,3678,3679,3680,3681,3682,3683,3684,3685,3686,3687,3688,3689,3690,3691,3692,3693,3694,3695,3696,3697,3698,3699,3700,3701,3702,3703,3704,3705,3706,3707,3708,3709,3710,3711,3712,3713,3714,3715,3716,3717,3718,3719,3720,3721,3722,3723,3724,3725,3726,3727,3728,3729,3730,3731,3732,3733,3734,3735,3736,3737,3738,3739,3740,3741,3742,3743,3744,3745,3746,3747,3748,3749,3750,3751,3752,3753,3754,3755,3756,3757,3758,3759,3760,3761,3762,3763,3764,3765,3766,3767,3768,3769,3770,3771,3772,3773,3774,3775,3776,3777,3778,3779,3780,3781,3782,3783,3784,3785,3786,3787,3788,3789,3790,3791,3792,3793,3794,3795,3796,3797,3798,3799,3800,3801,3802,3803,3804,3805,3806,3807,3808,3809,3810,3811,3812,3813,3814,3815,3816,3817,3818,3819,3820,3821,3822,3823,3824,3825,3826,3827,3828,3829,3830,3831,3832,3833,3834,3835,3836,3837,3838,3839,3840,3841,3842,3843,3844,3845,3846,3847,3848,3849,3850,3851,3852,3853,3854,3855,3856,3857,3858,3859,3860,3861,3862,3863,3864,3865,3866,3867,3868,3869,3870,3871,3872,3873,3874,3875,3876,3877,3878,3879,3880,3881,3882,3883,3884,3885,3886,3887,3888,3889,3890,3891,3892,3893,3894,3895,3896,3897,3898,3899,3900,3901,3902,3903,3904,3905,3906,3907,3908,3909,3910,3911,3912,3913,3914,3915,3916,3917,3918,3919,3920,3921,3922,3923,3924,3925,3926,3927,3928,3929,3930,3931,3932,3933,3934,3935,3936,3937,3938,3939,3940,3941,3942,3943,3944,3945,3946,3947,3948,3949,3950,3951,3952,3953,3954,3955,3956,3957,3958,3959,3960,3961,3962,3963,3964,3965,3966,3967,3968,3969,3970,3971,3972,3973,3974,3975,3976,3977,3978,3979,3980,3981,3982,3983,3984,3985,3986,3987,3988,3989,3990,3991,3992,3993,3994,3995,3996,3997,3998,3999,4000,4001,4002,4003,4004,4005,4006,4007,4008,4009,4010,4011,4012,4013,4014,4015,4016,4017,4018,4019,4020,4021,4022,4023,4024,4025,4026,4027,4028,4029,4030,4031,4032,4033,4034,4035,4036,4037,4038,4039,4040,4041,4042,4043,4044,4045,4046,4047,4048,4049,4050,4051,4052,4053,4054,4055,4056,4057,4058,4059,4060,4061,4062,4063,4064,4065,4066,4067,4068,4069,4070,4071,4072,4073,4074,4075,4076,4077,4078,4079,4080,4081,4082,4083,4084,4085,4086,4087,4088,4089,4090,4091,4092,4093,4094,4095
id10000,0.0,0.0,0.0,0.07767769,0.0,0.0,0.0,-0.16780789,0.0,0.0,0.0,0.67498004,0.0,0.0,0.0,-0.3212489,0.0,0.0,0.0,0.0,0.0,0.0,0.0,0.0,0.0,0.0,0.0,0.0,0.0,0.0,0.0,0.0,0.0,0.0,0.0,0.0,0.0,0.0,0.0,0.0,0.0,0.0,0.0,0.0,0.0,0.0,0.0,0.0,0.0,0.3150199,0.0,0.19367671,0.0,0.0,0.0,0.0,0.0,-0.100066304,0.0,0.0,0.0,0.0,0.0,-0.31474572,0.0,0.0,0.0,0.0,0.0,0.0,0.0,0.0,0.0,0.0,0.0,0.0,0.0,0.0,0.0,-0.3313279,0.0,0.0,0.0,-0.4124625,0.0,0.0,0.0,0.0,0.0,0.0,0.0,0.0,0.0,0.0,-0.013564928,0.0,-0.7457499,0.0,0.0,0.0,0.0,0.0,0.0,0.0,0.0,0.0,0.0,0.0,0.0,0.0,0.39973322,0.0,0.0,0.0,0.0,0.0,0.0,0.0,0.0,0.0,0.0,1.1594058,0.0,0.0,0.0,0.0,0.0,0.0,0.0,0.0,0.0,0.0,0.0,0.0,0.0,0.0,0.0,0.0,0.0,0.0,0.0,0.0,0.0,0.18884334,-0.35560745,0.0,0.0,0.0,-0.070742644,0.0,0.0,0.0,0.0,0.0,0.0,0.0,0.0,0.0,0.0,0.0,0.0,0.0,0.0,0.0,0.0,0.0,0.0,0.0,0.0,-0.36136377,0.0,0.0,0.0,0.0,0.0,0.0,0.0,0.0,0.0,0.0,0.0,0.0,0.0,0.0,0.0,0.0,0.0,0.0,0.0,0.0,0.0,0.0,0.0,0.0,0.0,0.0,0.0,0.0,0.0,-0.035953175,0.0,0.0,0.0,0.0,0.50617665,0.0,0.0,-0.52663255,0.0,0.0,0.078931205,0.0,0.0,0.0,0.0,0.0,0.0,0.0,-0.37623128,0.0,-0.4047603,0.0,0.0,0.0,0.0,0.0,0.0,0.0,-0.31166607,0.0,0.0,0.0,0.0,0.0,0.0,0.0,0.0,0.0,0.0,-0.14225261,0.0,0.0,0.0,0.0,0.0,0.0,0.0,0.0,0.0,0.56400675,0.9431442,0.0,0.0,0.0,0.0,0.0,0.0,0.0,0.0,0.0,0.0,0.0,0.0,0.0,-0.21051662,0.0,0.0,0.0,0.0,0.0,0.0,0.25293788,0.0,0.0,0.0,0.0,0.0,0.0,0.0,0.0,0.0,0.0,0.0,0.0,0.0,0.0,0.0,0.0,0.0,-0.45229983,0.0,0.0,0.0,0.0,0.0,0.0,0.0,0.0,0.0,0.0,0.0,0.0,0.0,0.0,0.0,0.0,0.0,0.0,0.0,0.0,0.0,0.0,0.0,0.0,0.0,0.0,0.0,0.045286834,0.0,0.11064243,0.0,0.0,0.0,0.0,0.0,0.0,0.0,0.0,0.0,0.0,0.0,0.0,0.0,0.0,0.0,0.0,-0.80172366,0.0,0.0,0.0,0.0,0.0,0.0,0.0,0.0,0.0,-0.005312721,0.0,0.0,0.0,0.0,0.0,0.0,0.0,0.0,0.0,0.0,0.0,0.0,0.0,0.0,0.0,0.0,0.0,0.0,0.0,0.0,0.0,0.0,0.0,0.0,0.0,0.0,0.0,0.0,0.0,0.0,0.0,0.0,0.0,0.0,0.0,0.0,0.0,0.0,0.0,0.08686452,0.0,0.0041012666,0.0,0.0,0.0,0.0,-0.43207654,0.0,0.0,0.0,0.0,0.0,0.0,0.0,0.0,0.0,0.0,0.0,0.0,0.0,0.0,0.0,0.0,0.0,0.0,0.0,0.0,0.0,0.0,0.0,0.0,0.0,0.0,0.0,0.0,0.0,0.0,0.0,0.0,0.0,0.0,0.0,0.17443714,0.0,0.0,0.0,0.0,0.0,0.0,0.0,0.0,0.450855,0.0,0.0,0.0,0.0,0.0,0.0,0.0,0.0,0.0,0.0046518818,0.0,0.0,0.0,0.0,0.0,0.0,0.0,0.0,0.0,0.0,0.0,0.0,0.0,0.0,0.0,0.0,0.0,0.1067333,0.0,0.0,0.0,0.0,0.0,0.0,0.0,0.0,0.0,0.0,0.0,0.0,0.0,0.0,0.0,0.0,0.0,0.0,0.0,0.0,0.0,0.0,0.0,0.0,0.0,0.0,0.015334825,0.0,0.0,0.0,0.0,0.0,0.0,0.0,0.0,-0.049607713,0.0,-0.43434465,0.0,0.0,0.0,0.0,0.0,0.0,0.0,0.0,0.0,0.0,0.0,0.0,0.0,0.0,0.0,0.0,0.0,0.0,0.0,0.0,0.0,0.0,0.0,0.0,0.0,0.0,0.42019203,0.0,0.0,0.0,0.0,0.0,0.0,0.0,0.0,0.0,0.0,0.0,0.0,0.0,0.0,0.06959384,0.12504876,0.0,0.0,0.0,0.0,0.0,0.0,0.0,0.0,0.0,0.0,0.0,0.0,0.0,0.0,0.0,0.0,0.0,0.0,0.0,0.0,-1.2281305,0.0,0.0,0.0,0.0,0.0,0.0,0.0,0.0,0.0,0.0,0.0,0.0,0.0,0.0,0.0,0.0,0.0,0.0,0.0,0.0,0.0,0.0,-0.5232824,0.0,0.0,0.0,0.0,0.0,0.0,0.0,0.0,0.4162799,0.0,0.0,0.0,0.0,0.0,0.23449582,0.0,0.0,0.0,0.0,0.0,0.0,0.0,0.0,0.0,0.0,0.0,0.0,0.0,0.0,0.0,0.0,0.0,0.0,0.0,0.0,0.0,0.0,0.0,0.0,0.0,0.0,0.0,0.0,0.0,0.0,-0.03463657,0.0,0.0,0.0,0.0,0.0,0.0,0.0,0.0,0.0,0.0,0.0,0.0,0.0,0.0,0.16155621,0.0,0.0,0.0,0.3703427,0.0,0.0,0.0,0.0,0.0,0.0,0.0,0.0,0.0,0.22407705,0.0,0.0,0.0,0.0,0.0,0.0,0.0,-0.0828193,0.0,0.0,0.0,0.0,0.0,0.0,0.0,0.0,0.0,0.0,0.0,0.0,0.0,0.0,0.0,0.0,0.0,0.0,0.0,0.0,0.0,0.0,0.0,0.0,0.0,0.0,0.0,0.0,0.0,0.0,0.7175851,0.0,0.0,0.0,0.0,0.0,0.0,0.0,0.0,0.0,0.0,0.0,0.26725766,0.0,0.0,0.0,0.0,0.0,0.0,0.0,0.0,0.0,0.0,0.0,0.0,0.0,0.0,0.0,0.0,0.0,0.0,0.0,0.0,0.0,0.0,0.14056027,0.0,0.0,0.0,0.0,0.0956906,0.0,0.0,0.0,0.0,0.0,0.0,0.0,0.0,0.0,0.0,0.0,0.0,0.0,0.0,0.0,0.0,0.0,0.0,0.0,0.0,0.9748668,0.0,0.0,0.0,0.056895003,0.0,0.0,0.0,0.0,0.0,0.604753,0.0,0.0,0.0,0.0,0.0,0.0,0.0,0.0,0.0,0.0,0.0,0.0,0.0,0.0,0.0,0.0,0.0,0.0,0.0,0.0,0.0,0.0,0.0,0.0,0.0,0.0,0.0,0.0,0.0,0.0,0.0,0.0,0.0,0.0,0.0,0.0,0.0,0.0,0.0,0.0,0.0,0.0,0.0,0.0,-0.045567572,0.0,0.0,0.0,0.0,0.0,0.0,0.0,0.0,0.0,0.0,0.18108346,0.2104481,0.0,0.0,0.0,0.0,0.0,0.0,0.0,0.0,0.0,0.0,0.0,0.0,0.0,0.0,0.0,0.0,-0.0068023405,0.0,0.0,0.0,0.0,0.0,0.0,-0.02433213,0.0,0.0,0.0,0.0,0.0,0.0,0.0,0.0,0.049655735,0.0,0.0,0.0,0.0,0.0,0.0,0.0,0.0,0.0,0.0,0.0,0.0,0.0,0.0,-0.069351636,0.0,0.0,0.0,0.0,0.0,0.0,0.0,0.0,0.0,0.0,0.0,0.0,0.0,0.0,0.0,0.0,0.0,0.0,0.0,0.0,0.0,0.011733214,0.0,0.0,0.0,0.0,0.0,0.0,0.0,0.0,0.0,0.0,0.0,0.0,0.0,0.0,0.0,0.14503054,0.0,-0.024759388,0.0,0.0,0.0,0.0,0.0,0.0,0.0,0.0,0.0,0.0,0.13098234,0.0,-0.055547386,0.0,0.0,0.0,0.0,0.0,0.0,0.0,0.0,0.0,0.0,0.0,0.0,0.0,0.0,0.0,0.0,0.0,0.0,0.0,0.0,0.0,0.0,0.0,0.0,0.0,0.0,0.0,0.0,0.0,0.0,0.0,-0.3575534,0.0,0.0,0.0,0.0,0.0,0.0,0.0,0.0,0.0,0.0,0.0,0.0,0.0,0.0,0.0,0.0,0.0,-0.36216575,0.0,0.0,0.0,0.0,0.0,0.0,0.0,0.0,0.0,0.0,0.0,0.0,0.0,0.0,0.0,0.0,0.0,0.0,0.0,0.0,0.0,0.0,0.0,0.0,0.0,0.0,0.0,0.0,0.0,0.0,0.0,0.0,0.0,-0.24466084,0.0,0.0,0.0,0.8474221,0.0,0.0,0.0,-0.0503923,0.0,0.0,0.0,0.0,-0.4819179,0.0,0.0,0.0,-0.31610134,0.0,-0.02075133,0.0,0.0,-0.045822468,0.0,0.0,0.0,0.091056965,0.0,0.0,0.0,0.0,0.0,0.0,0.0,0.0,0.0,0.0,0.0,0.0,0.0,0.0,0.0,0.0,0.0,0.0,0.0,0.0,0.0,0.0,0.0,0.0,0.0,0.0,0.0,0.0,0.0,0.0,0.0,0.0,0.0,0.0,0.0,0.0,0.0,0.0,0.0,0.0,0.0,0.0,0.0,0.0,0.0,0.0,0.0,0.0,0.0,0.0,0.0,0.0,0.0,0.0,0.0,0.0,0.0,0.0,0.09122857,0.0,0.0,-0.044165608,0.0,0.0,0.0,0.0,0.0,0.0,0.0,0.0,0.0,0.0,0.0,0.0,0.0,0.0,0.0,0.0,0.0,0.0,0.0,0.0,0.0,0.32127064,0.0,0.0,0.0,0.0,0.0,0.0,0.0,0.0,0.0,0.0,0.0,0.0,0.0,0.0,0.0,0.0,0.0,0.0,0.0,0.0,0.0,0.0,0.0,0.0,-0.99301463,0.0,0.0,0.0,0.0,0.0,0.0,0.0,0.0,0.0,0.0,-0.1845605,0.0,0.0,0.0,0.0,0.0,0.0,0.0,0.0,0.0,0.0,0.0,0.0,0.0,-0.59024477,0.0,0.0,0.0,0.0,0.0,0.0,0.0,0.0,0.49173018,0.0,0.0,0.0,0.0,0.0,-0.0020287044,0.10069879,0.0,0.0,0.0,0.0,0.42374927,0.0,0.0,0.0,0.0,0.0,0.0,0.0,0.0,0.0,0.0,0.0,-0.27740356,0.0,0.0,0.0,0.0,0.0,0.0,0.0,0.0,0.0,0.0,0.0,-0.008225779,0.0,0.0,0.0,0.0,0.0,0.0,0.0,0.0,0.0,0.0,0.0,0.0,0.0,0.0,0.0,0.060744315,0.0,0.0,0.0,0.0,0.0,-0.17784451,0.0,0.0,0.0,0.0,0.07442534,0.0,0.0,0.0,0.0,0.0,0.0,0.0,0.0,0.0,-0.0066874735,-0.34992263,0.0,0.0,0.0,0.0,0.0,-0.21923077,0.0,0.0,0.0,0.0,0.0,0.0,0.0,0.0,-0.07107603,0.0,0.0,0.0,0.0,0.0,0.0,0.0,0.0,0.0,0.0,-0.09566931,0.0,0.0,0.0,0.0,0.0,0.0,0.0,0.0,0.0,0.0,0.0,0.0,0.060307775,0.0,0.0,0.0,0.0,0.0,0.0,0.0,0.0,0.28848663,0.0,0.0,0.0,0.0,0.0,0.03351785,0.0,0.0,0.0,0.0,0.0,0.0,-0.07104193,0.0,-0.075140774,0.0,0.2886971,0.0,0.0,0.0,0.0,0.0,0.0,0.0,0.0,0.0,0.0,0.0,0.0,0.0,0.0,0.0,0.0,0.0,0.0,0.4920043,0.0,0.0,0.0,0.0,0.0,0.0,0.0,0.0,0.0,0.0,0.0,0.0,0.0,0.0,0.0,-0.02074635,0.0,0.0,0.08930505,0.1322395,0.0,0.030901471,0.0,0.0,0.0,0.0,0.0,0.0,-0.23210306,0.0,0.0,0.0,0.0,0.0,0.0,0.0,0.0,0.0,0.0,0.0,0.0,0.0,0.0,0.0,0.0,0.0,0.0,0.0,0.0,0.0,0.0,0.0,0.0,0.0,0.0,0.0,0.0,0.0,-0.010677622,0.0,0.0,0.0,0.0,0.0,0.056498732,0.0,0.0,0.0,0.0,0.0,0.0,0.0,0.0,0.0,0.0,0.0,-0.1273266,0.0,0.0,0.0,0.0,0.0,0.0,0.0,0.0,0.0,0.0,0.0,0.0,0.0,0.0,0.0,0.0,0.0,0.0,0.0,0.0,0.0,0.0,0.0,0.0,0.0,0.0,0.0,0.0,0.44709584,1.3574123,0.0,0.0,0.0,0.0,-0.31476662,-0.17200355,0.016196951,0.0,0.0,0.0,0.0,0.0,0.0,0.15549763,0.0,0.0,0.0,-0.09959793,0.0,-0.080775596,0.0,0.0,0.0,0.0,-0.03177086,0.0,0.0,0.0,0.0,0.0,0.0,0.0,0.0,0.0,-0.24330184,0.0,0.0,0.0,0.0,0.0,0.0,0.0,0.0,0.0,0.0,0.0,0.0,0.0,0.0,0.0,0.0,0.0,0.0,-0.016237173,0.0,0.0,0.0,0.0,0.0,0.0,0.0,0.0,0.0,0.0,0.0,0.0,0.0,0.0,0.0,0.0,0.23964754,0.0,0.5259462,0.0,0.0,0.0,0.0,0.29079217,0.0,0.0,0.0,0.0,0.0,0.0,0.0,0.10293757,0.0,0.0,0.0,0.0,0.0,0.0,0.0,0.0,0.0,0.0,-0.28195608,0.060086746,0.0,0.027006248,0.0,0.0,0.0,0.0,0.0,0.0,0.0,0.0,0.0,0.0,-0.24906754,0.0,0.0,0.0,0.0,0.0,0.0,0.0,0.0,0.0,-0.47038734,0.0,0.28383029,0.0,0.0,0.0,0.0,0.0,0.0,0.0,0.12349247,0.0,0.0,0.0,0.15846516,0.0,0.0,0.0,0.0,0.0,0.0,0.0,0.0,0.0,0.0,0.0,0.0,0.0,0.0,0.0,0.0,0.0,0.0,0.0,0.0,0.0,0.0,-1.385635,0.0,0.0,0.0,0.0,0.0,0.0,0.0,0.0,0.0,0.0,0.0,0.0,0.0,0.0,0.0,0.0,0.0,0.0,0.0,0.0,0.0,0.0,0.0,0.0,0.0,0.0,0.0,0.0,0.0,0.0,0.0,0.0,0.0,0.0,0.0,0.0,0.0,0.0,0.0,0.09378114,0.0,0.0,0.0,0.0,0.0,0.0,0.0,0.0,0.0,0.0,0.0,0.0,-0.476627,0.0,0.0,0.0,0.0,0.0,0.0,0.0,0.0,0.0,0.0,0.0,0.0,0.0,0.0,-0.013131791,0.0,0.0,0.0,0.0,0.0,-0.19195585,0.0,0.0,0.0,0.0,0.0,0.0,0.0,0.0,0.0,0.0,0.0,0.0,0.0,0.0,0.0,0.0,0.0,0.0,0.0,0.48052686,0.0,0.2754784,0.0,0.0,0.0,0.0,0.0,0.0,0.0,0.0,0.0,0.0,0.0,0.0,0.0,0.0,0.0,0.0,0.0,0.0,0.0,0.0,0.0,0.0,0.0,0.0,0.0,0.5870303,0.0,0.0,0.0,0.0,0.0,0.0,0.0,0.0,0.0,0.0,0.0,0.0,0.0,0.0,0.0,0.0,0.0,0.0,0.0,-0.05148827,0.0,0.46364722,0.0,0.0,0.0,0.0,0.0,0.0,0.0,0.0,0.0,0.0,0.0,0.0,0.0,0.0,0.0,0.0,-0.41762125,0.0,-0.2578908,0.0,0.0,0.0,0.0,0.0,0.2096331,0.0,0.0,-0.18958317,-0.048576128,0.0,0.0,0.0,0.0,-0.1622047,0.0,-0.10356747,0.0,0.0,0.0,0.0,0.0,-0.03333217,0.0,0.0,0.0,0.0,0.0,0.0,0.0,0.0,0.0,0.0,0.0,0.0,0.0,0.0,0.0,0.0,0.0,0.0,0.0,-0.11092972,0.0,0.0,0.0,0.0,0.0,0.0,0.0,0.0,0.0,0.0,0.0,0.0,0.0,0.0,0.0,0.0,0.0,0.0,0.0,0.0,0.0,0.0,0.0,0.0,0.0,0.0,0.0,0.0,0.0,0.0,0.0,0.0,0.0,0.005337329,0.0,0.0,0.0,0.0,0.0,0.0,0.0,0.0,0.0,0.0,0.0,0.0,0.0,0.0,0.0,0.0,0.0,0.0,0.5671264,0.0,0.0,0.0,0.0,0.0,0.0,0.0,0.0,0.0,0.0,0.0,0.0,0.0,0.0,0.0,0.0,0.0,0.0,0.0,0.0,0.0,0.7366796,0.0,0.0,0.0,0.0,0.0,-0.2682336,-0.12474978,0.0,0.0,0.0,0.0,0.0,0.0,0.0,0.12664537,0.0,0.0,0.0,0.0,0.0,0.0,0.0,0.0,0.0,0.0,0.0,0.0,-0.0776447,0.0,0.0,0.0,0.0,0.13824052,0.0,0.0,0.0,0.0,0.0,-0.057033792,0.0,0.0,0.0,0.0,0.0,0.75075746,0.049370278,0.0,0.0,0.0,0.0,0.0,0.0,0.0,0.0,0.08751409,0.0,0.0,0.0,0.0,0.0,0.0,-0.21365313,0.0,-0.0050673373,0.0,0.0,0.18508072,0.0,0.0,0.0,0.0,0.0,0.0,0.0,0.0,0.0,0.0,0.0,0.0,0.0,0.0,0.75768995,0.0,0.0,0.0,0.0,0.0,0.0,0.0,0.0,0.0,0.0,0.0,0.0,0.0,0.0,0.0,-0.031835,0.0,0.0,0.0,0.0,0.12997137,0.0,0.0,0.0,0.0,-0.050587773,0.0,0.0,0.0,0.0,0.0,0.0,0.0,0.0,0.0,0.0,0.0,0.0,0.0,0.0,0.0,0.0,0.0,0.0,0.0,0.0,0.0,0.0,0.0,0.0,0.0,-0.60725087,0.0,0.0,0.0,0.0,0.0,0.0,0.0,0.0,0.0,0.0,0.0,0.0,0.0,0.0,0.0,0.0,0.0,0.0,0.0,0.0,0.0,0.0,0.0,0.0,0.0,0.0,0.0,0.0,0.0,-0.25328815,0.0,0.0,0.0,0.0,0.0,0.1394086,0.0,0.0,0.0,0.0,0.0,0.0,0.0,-0.12065671,0.0,0.0,0.0,0.0,0.0,0.0,0.0,0.0,0.0,0.0,0.12161895,-0.386809,0.0,-0.19357915,0.3464387,0.0,0.0,0.0,0.0,0.017289866,0.0,0.0,0.0,0.0,0.0,0.0,0.0,0.0,0.0,-0.3107024,0.0,0.0,0.0,0.0,0.0,0.0,0.0,0.0,0.0,-0.28415492,0.0,0.0,0.0,0.0,0.0,0.0,0.3594742,0.0,0.6731515,0.0,0.0,0.0,0.0,0.0,0.0,0.0,0.0,-0.37777928,0.0,0.0,0.0,0.0,0.0,0.0,0.0,0.0,0.0,0.0,0.0,0.0,0.0,0.0,0.0,0.0,0.0,0.0,0.0,0.0,0.0,0.0,0.0,0.0,0.0,0.0,0.0,0.0,0.0,0.0,0.0,0.0,0.0,0.0,0.0,0.0,0.0,0.0,0.0,0.0,0.0,-0.68724126,0.0,0.0,0.0,0.0,0.0,0.0,0.0,0.0,0.0,0.0,0.0,0.0,0.0,0.0,0.0,0.0,-0.16779852,0.0,0.0,-0.37972614,0.0,0.0,0.0,0.0,0.0,0.0,0.0,0.0,0.0,0.0,0.0,0.0,0.0,0.0,0.0,0.0,0.0,0.0,0.0,0.0,0.0,0.0,0.0,0.0,0.0,0.0,0.0,0.0,0.0,0.0,0.0,0.0,0.0,-0.16987848,0.0,0.0,0.0,0.0,0.0,0.0,0.0,0.0,0.0,0.0,0.0,-0.41725218,0.0,0.0,0.0,0.03878894,0.0,0.0,-0.109944105,0.0,0.3919716,0.0,0.0,0.0,0.0,0.0,0.0,0.0,0.0,0.0,0.0,0.0,0.0,0.0,0.0,0.0,0.0,0.0,0.0,0.0,0.0,0.0,0.0,0.0,0.0,0.0,0.0,0.0,0.0,0.0,0.0,0.0,0.0,0.0,0.0,0.0,0.0,0.0,0.0,0.0,0.0,0.0,0.0,1.1156973,0.0,0.0,0.0,0.0,0.071355276,0.0,0.0,0.0,0.0,-0.3519584,0.0,0.0,0.0,0.0,0.0,0.0,0.0,0.0,0.0,0.0,0.0,0.0,0.0,-0.2454487,0.0,0.0,0.0,0.0,0.0,0.0,-0.5076379,0.0,0.0,0.0,0.0,0.0,0.0,0.0,0.0,0.0,0.0,0.0,0.0,0.0,0.0,0.0,0.0,0.0,0.0,0.0,0.0,0.014765832,0.2558628,-0.18126753,0.0,0.0,0.0,0.0,0.0,0.0,0.0,0.0,0.0,0.0,0.0,0.0,0.0,0.0,0.0,0.08997661,0.0,0.0,0.0,0.0,0.0,0.0,0.0,0.0,0.0,0.0,0.0,0.0,0.0,0.0,0.0,0.0,0.0,0.0,0.0,0.0,-0.056295503,0.57208705,0.0,0.0,0.0,0.0,0.0,0.0,0.0,0.0,0.0,0.0,0.0,0.0,0.0,0.0,0.0,0.0,0.0,0.0,0.0,0.0,0.0,0.0,0.0,0.0,0.0,0.0,0.0,0.0,0.0,0.0,0.0,-0.34535095,0.0,0.0,0.0,0.0,0.0,-0.29314253,0.0,0.9919199,0.0,0.22960134,0.0,-0.46509457,0.0,0.0,0.0,0.0,-0.41786054,0.0,0.0,0.0,0.0,0.0,0.0,0.0,0.0,0.0,0.0,0.0,0.0,0.04725011,0.0,0.0,0.0,0.0,0.0,0.0,0.0,0.0,0.0,0.0,0.0,0.0,-0.04978901,0.0,0.0,0.0,-0.17821327,0.0,0.0,0.0,0.0,0.0,0.0,0.0,0.0,0.0,0.0,0.0,0.0,0.0,0.0,0.0,0.0,0.3296032,0.0,0.0,0.0,0.0,0.0,0.0,0.0,0.0,0.0,0.2687219,0.0,0.0,0.0,0.0,0.0,0.0,0.0,0.0,0.044927508,0.0,0.0,0.0,0.0,0.0,0.0,0.0,0.0,0.0,0.0,0.0,0.0,0.0,0.0,0.0,0.0,0.0,0.0,0.0,0.4728137,0.0,0.0,0.0,0.0,0.0,0.0,0.0,0.0,0.0,0.0,0.0,-0.37589452,0.0,0.0,0.0,0.0,0.0,0.0,0.0,0.0,0.0,-0.023684718,0.0,0.0,0.0,0.0,0.0,0.0,0.0,0.0,0.0,0.0,0.47603768,0.0,0.0,0.0,0.0,0.0,0.0,0.0,0.0,0.0,0.0,0.0,0.0,0.0,0.5156232,0.31192738,0.0,0.0,0.0,0.0,0.0,0.0,0.0,0.0,0.0,0.0,0.0,-0.09972235,0.0,0.0,0.0,0.0,0.0,0.725083,0.2930297,0.0,0.0,0.0,0.10844291,0.0,0.0,0.0,0.0,0.0,0.0,0.0,0.0,0.0,-0.09485817,0.0,0.0,0.0,0.0,0.0,0.0,0.0,0.0,0.0,0.0,0.0,0.0,0.0,0.49206904,0.0,0.0,0.0,0.0,-0.10147273,0.0,0.0,0.0,0.0,0.100592695,0.0,0.0,0.0,0.0,0.0,0.0,0.0,0.0,0.0,0.0,0.0,0.0,0.0,0.0,0.0,0.0,0.0,0.0,0.0,0.0,0.2382247,0.0,0.0,0.0,0.0,0.0,0.0,0.0,0.0,0.0,0.0,0.0,0.0,0.0,0.0,0.0,0.0,0.0,0.0,0.0,0.14457421,0.0,0.0,0.0,0.0,0.0,0.0,0.0,0.0,0.0,0.0,0.0,0.0,0.0,0.0,0.0,0.33938602,0.0,0.0,0.0,0.0,0.0,0.0,0.0,0.0,0.0,0.0,0.72884923,0.0,0.0,0.0,0.0,0.0,0.0,0.0,0.0,0.0,0.0,0.0,0.056828976,0.0,0.0,0.0,0.0,1.1005447,0.0,0.0,0.0,0.0,0.0,0.0,0.0,0.0,0.0,0.0,-0.64116967,0.0,0.0,0.0,0.0,0.0,0.0,0.0,0.32864457,0.0,0.0,0.0,0.0,0.0,0.0,0.0,0.0,0.0,0.26516223,0.0,0.0,0.0,0.0,0.0,0.0,0.0,0.0,0.0,0.0,0.0,0.0,0.0,0.0,-0.20059998,0.0,0.0,0.0,0.0,-0.22075938,0.0,0.0,-0.009867649,0.0,0.0,0.0,0.0,0.0,0.0,0.0,0.0,0.0,0.0,0.0,0.0,0.0,0.0,0.0,0.0,0.0,0.0,0.0,0.22520934,0.0,0.0,0.0,-0.11470821,0.3986107,0.12283922,0.0,0.0,0.0,0.0,0.0,0.0,0.0,0.0,0.0,0.0,0.0,-0.26914904,0.0,0.0,0.0,0.0,0.0,0.0,0.0,0.0,-0.16037552,0.0,0.05183901,0.0,0.0,0.0,-0.10309783,0.0,0.0,0.0,0.0,0.0,-0.013167352,-0.4184564,0.0,0.0,0.0,0.0,0.0,0.0,0.0,0.0,0.0,0.0,0.0,0.0,0.0,0.0,0.0,0.0,0.0,0.0,0.0,0.0,0.37533128,0.0,0.0,0.0,0.0,0.0,0.0,0.0,0.41380492,0.0,0.0,0.0,0.0,0.0,0.0,0.006434476,0.034341406,0.0,0.0,0.0,0.0,0.0,0.0,0.0,0.0,0.3455535,0.0,0.0,0.0,0.0,0.19769071,0.0,0.0,0.0,0.0,-0.12661052,0.0,0.0,0.0,0.0,0.0,-0.3189383,0.0,0.4530852,0.0,0.0,-0.270827,0.0,0.0,0.0,0.0,0.0,0.0,0.0,0.0,0.037070066,0.0,0.0,0.0,0.0,0.0,0.39220327,0.0,-0.25797743,0.0,0.0,0.0,0.0,0.0,0.0,0.0,0.0,0.0,0.0,0.0,0.0,0.0,0.0,0.0,0.0,0.0,0.0,0.0,0.0,0.0,0.0,0.0,0.0,0.0,0.0,0.0,0.0,0.0,0.0,0.24369816,0.0,0.0,-0.15862437,0.0,0.0,0.0,0.0,0.14946961,0.0,0.0,0.0,0.0,-0.20082277,0.0,0.0,0.0,0.0,0.0,0.16817291,0.0,0.0,0.0,0.0,0.0,0.0,0.0,0.0,0.0,0.0,0.0,0.0,0.0,0.0,-0.21663864,0.16675876,0.0,0.0,0.0,0.0,0.0,0.0,0.0,0.0,0.0,0.0,0.0,0.0,0.0,0.0,0.0,0.0,0.0,0.0,0.0,0.0,0.0,0.0,0.0,0.0,0.0,0.0,0.0,0.0,0.0,0.0,0.0,0.0,0.0,0.0,0.0,0.0,0.0,0.0,0.0,0.0,0.0,0.0,0.0,0.0,0.50443125,0.0,0.0,0.0,-0.1775934,0.0,0.0,0.0,-7.8272074e-05,0.0,0.0,0.0,-0.23298496,0.0,0.0,0.0,0.0,-0.1475932,0.0,0.0,0.0,0.0,-0.7980256,0.0,-0.17007221,0.0,0.0,0.0,0.0,0.0,0.0,0.0,0.0,0.0,0.0,0.0,0.0,0.0,0.0,0.0,0.0,0.0,0.0,0.0,0.0,0.0,0.0,0.0,0.0,0.0,0.0,0.0,0.207888,0.0,0.0,0.0,0.0,0.090815954,0.0,0.0,0.0,0.0,0.0,0.0,0.0,0.0,0.0,0.0,0.0,0.0,0.0,0.0,0.0,0.0,-0.32496825,0.0,0.0,-0.07573587,0.0,0.0,0.0,0.0,0.0,-0.32808432,0.0,0.0,0.0,0.0,0.0,0.0,0.0,0.0,0.0,0.0,-0.15257138,0.0,0.0,-0.18118246,0.0,0.0,-0.16346957,0.0,0.0,0.0,-0.0024395238,0.0,0.0,0.0,0.0,-0.029800424,0.0,0.0,0.0,0.0,0.0,0.0,0.0,0.0,0.0,0.0,0.0,0.0,0.0,0.0,0.71245337,0.0,0.0,0.0,0.0,0.0,0.0,0.0,0.0,0.0,0.0,0.0,0.0,0.0,0.0,0.0,0.0,0.0,0.0,0.0,0.0,0.0,0.0,0.0,0.0,0.0,0.0,-0.121426515,0.0,0.0,0.0,0.0,0.0,0.0,0.0,0.0,0.0,0.0,0.0,0.0,0.0,0.0,0.0,0.0,0.0,0.0,0.0,0.0,0.0,0.0,-0.14954752,0.0,0.0,-0.064797364,0.0,-0.5378484,0.0,0.0,0.0,0.0,0.0,0.0,0.0,0.0,0.0,0.0,0.0,0.0,0.0,0.0,-1.0200571,0.0,0.0,0.0,0.0,0.0,0.0,0.0,0.0,0.0,0.0,0.0,0.0,0.0,0.0,0.0,0.0,0.0,-0.119837455,0.0,0.0,0.0,0.0,-0.11975785,0.0,0.0,0.0,0.0,0.0,0.0,0.0,0.0,0.0,0.0,0.0,0.0,0.0,0.0,0.0,0.0,0.0,1.2896017,-0.27747157,-0.21039619,0.0,0.0,0.0,0.0,0.0,0.0,0.0,0.0,0.0,0.0,0.0,0.0,0.9075988,0.0,0.0,0.0,0.0,0.0,0.0,0.0,0.0,0.111018,0.0,0.0,0.0,0.0,0.0,0.0,0.0,0.0,0.0,0.0,0.0,0.0,0.0,0.0,0.0,0.0,-0.026340662,0.0,0.6269924,0.0,0.0,0.0,0.0,0.0,0.0,0.0,0.328203,0.0,0.0,-0.269286,0.0,0.22871679,0.0,0.0,-0.099801,0.0,0.0,0.0,0.0,0.0,0.0,0.0,0.0,0.0,0.0,0.0,0.0,0.0,0.0,0.0,0.0,0.0,0.0,0.0,0.0,0.0,0.0,0.0,0.0,0.0,0.0,0.0,0.0,0.0,0.0,0.0,0.0,-0.32046375,0.0,0.0,0.0,0.0,0.0,0.0,0.0,0.0,0.0,0.0,0.0,0.0,0.0,0.0,0.0,0.0,0.0,0.0,0.0,-0.24565561,0.0,0.0,0.0,0.0,0.0,0.0,0.0,-0.17366849,0.0,0.0,0.0,0.0,0.0,0.0,0.0,0.0,0.0,0.0,0.0,0.0,0.0,0.023829043,0.0,0.0,0.0,0.0,0.2680875,0.0,0.0,0.0,0.0,0.0,0.0,0.0,0.0,0.0,0.0,0.0,0.0,0.0,0.0,-0.4530894,0.0,0.0,0.0,0.0,0.0,0.0,0.0,0.0,0.0,0.0,-0.29921213,0.0,0.0,0.0,-0.022130521,0.0,0.0,0.0,0.30857226,0.0,0.0,0.0,0.0,0.0,0.0,0.0,0.0,0.0,0.0,0.0,0.0,0.0,0.0,0.0,0.0,0.0,0.0,0.0,0.0,0.0,0.0,-0.24150364,0.0,0.0,0.0,-0.06958723,0.012652871,0.0,0.0,0.0,0.0,0.60138124,0.0,0.0,0.0,0.0,0.0,0.0,0.0,0.0,0.0,0.0,0.0,0.0,0.0,0.0,0.0,0.0,0.0,0.0,0.0,0.0,0.0,0.0,0.0,0.0,0.0,0.0,0.0,-0.025712907,0.0,0.0,0.0,0.0,0.0,0.0,0.0,0.0,0.0,0.0,0.0,0.0,0.0,0.0,0.0,0.0,-0.28807035,0.0,0.0,0.0,0.0,0.0,0.0,0.0,0.0,0.0991149,0.0,0.0,0.0,0.0,0.0,0.0,0.0,0.0,0.0,0.0,0.0,0.0,0.0,0.0,0.0,0.0,0.0,0.0,0.0,0.0,0.0,0.0,0.0,0.0,0.0,0.0,0.26607883,-0.07291112,0.0,0.0,0.0,0.0,0.0,0.0,0.0,0.0,0.0,0.0,0.0,0.0,0.0,0.0,0.26477674,0.0,0.0,0.0,0.0,0.0,0.0,0.0,0.0,0.0,0.0,0.0,0.0,0.0,0.0,0.29833686,0.0,0.0,0.0,0.63125384,0.0,0.0,0.0,0.0,0.0,0.0,0.18783307,0.0,0.0,0.0,0.0,0.0,0.0,0.0,0.0,0.0,0.0,0.0,-0.09057937,-0.3821652,0.0,0.0,0.0,0.0,0.0,0.0,0.0,0.0,0.0,0.0,0.0,0.0,0.0,0.0,0.0,0.0,0.0,0.0,0.0,0.0,0.0,0.0,0.0,0.0,0.0,0.0,0.0,0.0,0.0,0.0,0.0,0.0,0.0,-0.5822297,0.0,0.0,0.0,0.0,0.0,0.0,0.0,-0.09808302,0.06579801,0.0,0.0,0.0,0.0,0.0,0.0,-0.25398424,0.0,0.0,0.0,0.5268036,0.0,0.0,0.0,0.0,0.0,0.0,0.0,0.0,0.3942856,0.0,0.0,0.0,0.0,0.0,0.6572309,0.0,0.0,0.0,0.0,0.0,0.0,0.0,0.0,0.0,0.0,0.0,0.0,0.0,0.0,0.0,-0.07327459,0.0,0.0,0.11813629,0.0,0.0,0.0,0.0,0.0,0.0,0.0,0.0,0.0,0.0,-0.3317518,0.0,0.0,0.0,0.0,0.0,0.0,0.0,0.0,0.0,0.0,0.0,0.0,0.0,0.0,0.0,0.0,0.0,0.0,0.0,0.0,0.0,0.0,0.0,0.0,0.0,0.0,0.0,0.0,0.0,0.0,0.0,0.0,0.0,0.0,0.0,0.0,0.0,0.0,0.0,0.0,0.0,0.0,0.0,0.0,0.0,0.0,0.0,0.0,0.0,0.0,0.0,0.0,0.06105612,0.0,0.0,0.0,0.0,0.0,0.0,0.0,0.0,0.0,0.0,0.0,0.0,0.0,0.0,0.0,0.0,0.0,0.0,0.0,0.0,0.0,0.0,0.0,0.0,0.0,0.0,0.0,0.0,0.0,0.0,0.0,0.0,0.0,-0.46207395,0.0,0.0,0.0,0.0,0.0,0.0,0.0,0.0,0.0,0.0,0.0,0.0,0.0,0.0,0.0,0.0,0.0,0.0,0.0,0.0,0.0,0.0,0.0,0.0,0.0,0.0,0.0,0.0,0.0,0.0,0.0,0.0,0.0,0.0,0.0,0.0,0.0,0.0,0.0,0.0,0.0,0.0,0.0,0.0,0.0,0.0,0.0,0.0,0.0,1.1067123,0.0,0.0,0.0,0.0,0.0,0.0,0.0,0.0,0.0,0.0,-0.34393966,0.0,-0.35276642,0.0,0.0,0.0,0.0,0.0,0.0,-0.8807546,0.0,0.0,0.0,0.0,0.0,0.0,0.0,0.0,0.0,0.0,0.0,0.0,0.20471857,0.0,0.0,0.0,0.0,0.0,0.0,0.0,0.0,0.058222536,0.0,-0.121719025,0.0,0.0,-0.0073179253,0.0,0.0,0.0,0.0,-0.42055988,0.0,0.0,0.0,0.0,0.0,0.0,0.0,0.0,0.0,0.0,0.0,0.0,0.0,-0.26875684,0.0,0.0,0.0,0.0,0.0,-0.8780517,0.0,-0.46097112,0.0,0.452791,0.0,0.0,0.0,0.0,0.0,0.0,0.0,0.0,0.0,0.0,0.0,0.0,0.0,0.0,0.0,0.0,-0.21042193,0.0,0.14467742,0.0,0.0,0.0,0.0,0.0,0.0,0.0,0.0,0.0,0.0,0.0,0.0,0.0,0.0,0.0,0.0,0.0,0.0,0.0,0.0,0.0,0.0,0.0,0.0,0.0,0.0,0.0,0.0,0.0,0.0,-0.5527875,0.0,-0.018318057,0.0,0.0,0.0,0.0,0.0,0.0,0.0,0.0,0.0,0.0,0.0,0.015158691,0.0,0.0,0.0,0.0,0.0,0.0,0.0,0.0,-0.30530265,0.0,0.0,0.0,0.0,0.0,0.0,-0.43386063,0.0,0.0,0.0,0.0,0.0,0.0,0.0,0.0,0.0,0.0,0.0,0.0,0.0,0.0,0.0,0.0,0.0,0.0,0.0,0.0,0.0,0.0,0.0,0.0,0.0,0.0,0.0,0.0,-0.016616212,0.0,0.0,0.0,0.0,0.0,0.0,0.041680764,0.0,0.0,-0.022998303,0.0,0.0,0.0,0.0,0.0,0.0,0.0,0.0,0.0,0.0,0.0,0.0,0.0,0.0,0.0,0.0,0.0,0.0,0.0,0.0,0.0,0.0,0.0,0.0,0.0,0.0,0.0,0.0,0.0,-0.32015336,-0.18693623,0.0,0.0,0.0,0.0,0.0,0.0,0.0,0.0,0.0,0.0,0.0,0.0,0.0,0.0,0.0,0.21189292,0.0,0.0,0.0,0.0,0.0,0.0,0.0,0.0,0.0,-0.0013642808,0.0,0.0,0.0,0.0,0.0,0.46494427,0.0,0.0,0.0,0.0,0.0,0.0,0.0,0.0,0.0,-0.19670115,0.0,0.0,0.0
id10001,0.0,0.0,0.0,0.7953743,0.0,0.0,0.5120823,-0.002411619,0.0,0.0,0.0,0.5598734,0.0,0.0,0.0,0.39131737,0.0,0.0,0.0,0.0,0.0,0.0,0.0,-0.019644478,0.0,0.19980215,0.0,0.0,0.0,0.0,0.0,0.0,0.0,0.0,0.0,0.0,0.0,0.0,0.0,0.0,0.0,0.0,0.0,0.0,0.0,0.0,0.0,0.0,0.0,0.60946053,0.0,0.17611672,0.0,0.0,0.0,0.0,0.0,0.71871775,0.0,0.0,0.0,0.0,0.0,0.19597492,0.0,0.0,0.0,0.0,0.0,0.0,0.0,0.0,0.0,0.0,0.0,0.0,0.0,0.0,0.0,2.0126233,0.0,0.0,0.0,0.18055953,0.0,0.09299069,0.0,0.0,0.0,0.0,0.08578175,0.0,0.0,0.0,1.427918,0.0,0.0,0.0,0.0,0.0,0.0,0.0,0.0,0.0,0.0,0.0,0.0,0.0,0.0,0.0,0.27257517,0.0,0.0,0.0,0.0,0.0,0.0,0.0,0.0,0.0,0.0,-0.22616158,0.0,0.029322976,0.0,0.0,0.0,0.0,0.0,0.0,0.0,0.0,0.0,0.0,0.0,0.0,0.0,0.0,0.0,0.0,0.0,0.0,0.0,0.0,0.50678605,0.0,0.0,0.0,0.0,0.0,0.0,0.0,0.0,0.0,0.0,0.0,0.0,0.0,0.0,0.0,0.0,0.0,0.0,0.0,0.0,0.0,0.0,0.0,0.0,-0.09425855,0.0,0.0,0.0,0.0,0.0,0.0,0.0,0.0,0.0,0.0,0.0,0.16245809,0.0,0.0,0.0,0.19012885,0.0,0.0,-0.14673693,0.0,0.0,0.0,0.0,0.0,0.0,0.0,0.0,0.0,0.0,0.0,0.0,0.0,0.0,0.0,-0.17905408,0.0,0.0,0.36660776,0.0,0.0,-0.028904835,0.0,0.0,0.0,0.0,0.0,0.0,0.0,-0.2991957,0.0,0.7426883,0.0,0.0,0.0,0.0,0.0,0.0,0.0,-0.40952808,0.0,0.0,0.0,0.0,0.0,0.0,0.0,0.0,0.0,0.0,0.24783722,0.0,0.0,0.0,0.0,0.0,0.0,0.0,0.0,0.0,0.8044326,-0.68830127,0.0,0.0,0.0,-0.0025931175,0.0,0.0,0.0,0.0,0.0,0.0,0.0,0.0,0.0,0.8043436,0.0,0.0,0.0,0.0,0.0,0.0,0.0,0.0,0.0,0.0,0.0,0.0,0.0,0.0,0.0,0.0,0.0,0.0,0.0,0.0,0.0,0.0,0.0,0.0,0.0,0.0,0.0,0.0,0.0,0.0,0.0,0.0,0.016235799,0.0,0.34903756,0.0,0.0,0.0,0.0,0.0,0.0,0.0,0.0,0.0,0.0,0.0,0.0,0.0,0.0,0.0,0.0,0.0,0.0,0.0,0.0,0.0,0.0,0.0,0.0,0.08172234,0.0,0.040502675,0.0,0.1943709,0.0,0.0,0.0,0.0,0.0,0.0,0.0,1.0583857,0.0,0.0,0.0,0.0,0.0,0.0,0.0,0.0,0.0,0.0,0.0,0.0,0.0,0.0,0.0,0.0,0.0,0.0,0.0,0.0,0.0,0.0,0.0,0.0,0.15173714,0.0,0.0,0.0,0.0,0.0,0.0,0.0,0.0,0.0,0.0,0.0,0.0,0.0,0.0,0.0,0.0,0.0,0.0,0.0,0.0,0.0,0.0,0.0,0.0,0.5214071,0.0,0.0,0.0,0.14166223,0.0,0.0,0.21823256,0.0,0.0,0.0,0.0,0.0,0.0,0.0,-0.09835566,0.0,0.0,0.0,0.0,0.0,0.0,0.0,0.0,0.0,0.0,0.0,0.0,0.0,0.0,0.0,0.0,0.0,0.0,0.0,0.0,0.0,0.0,0.0,0.0,0.0,0.0,0.0,0.42665216,0.0,0.0,0.0,0.0,0.0,0.0,0.0,0.0,0.0,0.0,0.0,0.0,-0.025252094,0.0,0.0,0.0,0.0,0.0,0.0,0.0,0.0,0.0,0.0,0.0,0.0,0.0,0.0,0.0,0.0,0.0,0.0,0.0,0.0,0.0,0.0,0.0,-0.65988153,0.0,0.0,0.0,0.0,0.0,0.0,0.0,0.0,0.0,0.0,0.0,0.0,0.0,0.0,0.0,0.0,0.0,0.0,0.0,0.0,0.0,0.0,0.0,0.0,0.0,0.0,0.41373003,0.0,0.0,0.0,0.0,0.0,0.0,0.0,0.0,-0.15266828,0.0,1.604333,0.0,0.0,0.0,0.0,0.0,0.0,0.0,0.0,0.0,0.0,0.0,0.0,0.0,0.0,0.0,0.0,0.0,0.0,0.0,0.0,0.0,0.0,0.0,0.0,0.0,0.0,0.0,0.0,0.0,0.0,0.0,0.0,0.0,0.0,0.0,0.0,0.0,0.0,0.0,0.0,0.0,0.2905366,-0.00079120696,0.0,0.0,-0.8177512,0.0,0.0,0.0,0.0,0.0,-0.17403764,0.0,0.0,0.0,0.0,0.0,0.0,0.0,0.0,0.0,0.0,0.0,1.5808524,0.0,0.0,0.0,0.0,0.0,0.0,0.0,0.0,0.0,0.0,0.0,0.0,0.0,0.0,0.0,0.0,0.0,0.0,0.0,0.0,0.0,0.0,0.63332367,0.0,0.0,0.80451375,0.13304257,0.0,0.0,0.0,0.0,-0.20986542,0.0,0.0,0.0,0.0,0.0,-0.27524015,0.0,0.0,0.0,0.0,0.0,0.0,0.0,0.0,0.0,0.0,0.0,0.0,0.0,0.0,0.0,0.0,0.0,0.0,0.0,0.0,0.0,0.0,0.0,0.0,0.0,0.0,0.70277125,0.0,0.0,0.2734298,-0.06392485,0.0,0.0,0.0,0.0,0.0,0.0,0.0,0.0,0.0,0.0,0.0,0.0,0.0,0.0,0.69067264,0.0,0.0,0.0,0.54140985,0.0,0.0,0.0,0.0,0.0,0.0,0.0,0.0,0.0,0.1299419,0.0,0.0,0.0,0.0,0.0,0.0,0.0,-0.5637961,0.0,0.0,0.0,0.0,0.0,0.0,0.0,-0.6238643,0.0,0.0,0.0,0.0,0.0,0.0,0.0,0.0,0.0,0.0,0.0,0.0,0.0,0.0,0.0,0.0,0.0,0.0,0.0,0.0,0.0,0.0,0.0,0.0,0.0,0.0,0.0,0.17951028,0.085112184,0.0,0.0,0.0,0.0,0.0,0.8754858,0.0,0.0,0.0,0.0,0.0,0.0,0.0,0.0,0.0,0.083512746,0.0,0.0,0.0,0.0,0.0,0.0,0.0,0.0,0.0,0.0,0.0,0.0,0.71422416,0.0,0.0,0.0,0.0,-0.15848744,0.0,0.0,0.0,0.0,0.0,0.0,0.0,0.0,0.0,0.0,0.0,0.0,0.0,0.0,0.0,0.0,0.0,0.0,0.0,0.0,0.04094734,0.0,0.0,0.0,0.0,0.0,0.0,0.0,0.0,0.0,0.42461997,0.0,0.0,0.0,0.0,0.0,0.0,0.0,0.0,0.0,0.0,0.0,0.0,0.0,0.45819223,0.0,0.0,0.0,0.0,0.0,0.0,0.0,0.0,0.0,0.060174763,-0.21898867,0.0,0.0,0.0,0.0,0.0,0.0,0.0,0.0,0.0,0.0,0.0,0.0,0.0,0.0,0.0,0.0,0.0,0.29889032,0.0,0.0,0.0,0.0,0.0,0.11234376,0.0,0.0,0.0,0.0,0.0,0.0,0.1326174,0.9219235,0.0,0.0,0.0,0.0,0.0,0.0,0.0,0.0,0.0,0.0,0.0,0.0,0.0,0.0,0.0,0.0,-0.03719351,0.0,0.0,0.0,0.0,0.0,0.0,0.0,0.0,0.0,0.0,0.0,0.0,0.0,0.0,0.0,0.0,0.0,0.0,0.0,0.0,0.0,0.0,0.0,0.0,0.0,0.0,0.0,0.0,0.0,0.0,0.121725194,0.0,0.0,0.0,0.0,0.0,0.0,0.0,0.0,0.0,0.0,0.0,-0.024022786,0.0,0.0,0.0,0.0,0.0,0.0,0.0,0.0,0.0,0.71575624,0.0,0.0,0.0,0.0,0.0,0.0,0.0,0.0,0.0,0.0,0.0,0.0,0.0,0.0,0.0,-0.050370697,0.0,0.022218734,0.0,0.0,0.0,0.0,0.0,0.0,0.0,0.0,0.0,0.0,-0.22248219,0.0,0.0,0.0,0.0,0.0,0.0,0.0,0.0,0.0,0.0,0.0,0.0,0.0,0.0,0.0,0.0,0.0,0.0,0.0,0.0,0.0,0.0,0.0,0.0,0.0,0.0,0.0,0.0,0.0,0.0,0.0,0.0,0.0,0.9644774,0.0,0.0,0.0,0.0,0.0,0.0,0.0,0.0,0.0,0.0,0.0,0.0,0.0,0.0,0.0,0.0,0.0,-0.85122794,0.0,0.0,0.0,0.0,-0.38522252,0.0,0.0,0.0,0.0,0.0,0.0,0.0,0.0,0.0,0.0,0.0,0.0,0.0,0.0,0.0,0.0,0.0,0.0,0.0,0.0,0.0,0.0,0.0,0.0,0.0,0.0,0.0,0.0,-0.1882656,0.0,0.0,0.0,0.0,0.0,0.08663627,0.0,0.38772368,0.0,0.18622145,0.0,0.0,0.64683187,0.0,0.0,0.0,0.31372395,0.0,-0.12328862,0.0,0.0,0.051832024,0.0,0.0,0.0,0.22362883,0.0,0.0,0.0,0.0,0.0,0.0,0.0,0.0,0.0,0.0,0.0,0.0,0.0,0.0,0.0,0.0,0.0,0.0,0.0,0.0,0.0,0.0,0.0039635585,0.0,0.0,0.0,0.0,0.0,0.0,0.0,0.0,0.0,0.0,0.0,0.0,0.0,0.0,0.0,0.0,0.0,0.0,0.0,0.0,0.0,0.0,0.0,0.0,0.0,0.0,-0.008067771,0.0,0.0,0.0,0.21366322,0.0,0.0,0.0,0.0,0.2325903,0.0,0.0,1.0983329,0.0,0.0,0.0,0.0,0.0,0.0,0.0,0.0,0.0,0.0,0.0,0.0,0.0,0.0,0.0,0.0,0.0,0.0,0.88825417,0.0,0.0,-0.80003023,0.0,0.0,0.0,0.0,0.0,0.0,0.0,0.0,0.0,0.0,0.0,0.0,0.0,0.0,0.0,0.0,0.0,0.0,0.0,0.0,0.0,-0.18405531,0.0,0.0,0.5120247,0.9147574,0.0,0.0,0.0,0.0,0.0,0.0,0.0,0.34199938,0.0,1.5515761,0.0,0.0,0.0,0.0,0.0,0.0,0.56423646,0.0,0.0,0.0,0.0,0.0,0.0,0.9933612,0.0,0.0,0.0,0.0,0.0,0.0,-0.038720574,0.0,0.0,0.0,0.0,0.0,0.0,0.0,0.5139379,-0.033542756,0.0,0.0,0.0,0.0,-0.37424958,0.0,0.0,0.0,0.0,0.0,0.0,0.0,0.0,0.0,0.0,0.0,0.7333534,0.0,0.0,0.0,0.0,0.0,0.0,0.0,0.0,0.0,0.0,0.0,0.32304204,0.0,0.0,0.0,0.0,0.0,0.0,0.0,0.0,0.0,0.0,0.0,0.0,0.0,0.0,0.0,0.66311467,0.0,0.0,0.0,0.0,0.0,-0.5087467,0.0,0.0,0.0,0.0,0.0,0.0,0.0,0.0,0.0,0.0,0.0,0.0,0.0,0.0,0.0,0.0,0.0,0.0,0.0,0.0,0.0,0.75880724,-0.09037825,0.0,0.0,0.0,0.0,0.0,0.0,0.0,0.13365369,0.0,0.0,0.0,0.0,0.0,0.0,0.0,0.0,0.0,0.0,0.2889,0.0,0.0,0.0,0.0,0.0,0.0,0.0,0.0,0.0,0.0,0.0,0.0,0.034654092,0.0,0.0,0.0,0.0,0.0,0.0,0.0,0.0,-0.30997506,0.0,0.0,0.0,0.0,0.0,-0.8474622,0.0,0.0,0.0,0.0,0.0,0.0,0.038454875,0.0,-0.032118354,0.0,0.6892554,0.0,0.0,-0.12986122,0.0,0.0,0.0,0.0,0.0,0.0,0.16094448,0.0,0.0,0.0,0.0,0.0,0.0,0.0,0.0,-0.2487761,0.0,0.0,0.0,0.0,0.0,0.0,0.0,0.0,0.0,0.0,0.0,0.0,0.0,0.0,0.0,-0.057247624,0.0,0.0,0.79124236,-0.20110057,0.0,-0.3338578,0.0,-0.16951762,0.0,0.0,0.0,0.0,-0.07290173,0.0,0.0,0.0,0.0,0.23695944,-0.19355603,0.0,0.0,0.0,0.0,0.0,0.0,0.0,0.0,0.0,0.0,0.0,0.0,0.0,0.0,0.0,0.0,0.0,0.0,0.0,0.0,0.0,0.0,0.0,0.0,0.0,0.0,0.0,0.0,0.0,-0.12533556,0.0,0.0,0.0,0.0,0.0,0.0,0.0,2.0134878,0.0,0.0,0.0,0.18746988,0.0,0.0,0.0,0.0,0.0,0.0,0.0,0.0,0.0,0.0,0.0,0.0,0.0,0.0,0.0,0.0,0.0,0.0,0.0,0.0,0.0,0.0,0.0,0.0,0.0,0.0,0.0,0.0,0.012258947,-0.66430473,0.0,0.0,0.0,0.0,0.41723603,0.583365,0.0,0.0,0.0,0.0,0.8199139,0.25749716,0.0,0.016861463,0.0,0.0,0.0,1.0762694,0.0,-0.5337185,0.0,0.0,0.0,0.0,0.0,0.0,0.0,0.0,0.0,0.0,0.6530594,0.0,0.0,0.0,-0.18075204,0.0,0.0,0.0,0.0,-0.042163517,0.0,0.0,0.0,0.0,0.0,0.0,0.0,0.0,0.0,0.0,0.0,0.0,0.0,0.0019924827,0.0,0.0,0.0,0.0,0.0,0.0,0.0,0.0,0.0,0.0,0.0,0.18208013,0.0,0.0,0.0,0.0,0.23228246,0.0,0.00971659,0.0,0.0,0.0,0.0,-0.031095168,-0.08538285,0.0,0.0,0.0,0.015445337,0.0,0.0,0.50827456,0.0,0.0,0.0,0.0,0.0,0.0,0.0,0.0,0.0,0.0,0.0,-0.29368848,0.0,-0.22391795,-0.1819788,0.0,0.0,0.0,0.0,0.0,0.0,0.0,0.0,0.0,1.2230735,0.0,0.013766463,0.0,0.0,0.0,0.0,0.0,0.0,0.0,0.20566697,0.0,-0.6063017,0.0,0.0,0.0,0.0,0.3134955,0.0,0.0,0.15717766,0.0,0.0,0.0,0.0,0.0,0.0,0.0,0.0,0.0,0.0,0.0,0.0,0.0,0.0,0.0,0.0,0.0,0.0,0.0,0.0,0.0,0.0,0.0,0.0,0.0,0.0,0.6129863,0.0,0.0,0.0,0.0,0.0,0.0,0.0,0.0,0.0,0.0,0.0,0.0,0.0,0.0,0.0,0.0,0.0,0.0,0.0,0.0,0.0,0.0,0.0,0.0,0.0,0.0,0.9022947,0.0,0.0,0.0,0.0,0.0,0.0,0.0,0.0,0.0,0.0,0.0,0.0,0.0,0.0,0.0,0.0,0.0,0.0,0.0,0.0,0.0,0.0,0.0,0.0,0.0,1.4129679,0.0,0.0,0.0,0.08258327,0.0,0.0,0.0,0.0,0.0,0.0,0.0,0.0,0.0,0.0,0.16090007,0.0,0.084256746,0.0,0.0,0.0,0.8391208,0.0,0.0,0.0,0.0,0.0,0.0,0.0,0.0,0.0,0.0,0.0,0.0,0.0,0.0,0.0,0.0,0.0,0.0,0.0,-0.103037745,0.0,-0.09289836,0.0,0.0,0.0,0.0,0.0,0.0,0.0,0.0,0.0,0.0,0.0,0.0,0.0,0.0,0.0,0.0,0.0,0.0,0.0,0.0,0.0,0.0,0.0,0.0,0.0,-0.22123195,0.0035160512,0.0,0.0,0.0,0.0,0.0,0.0,0.0,0.0,0.0,0.0,0.0,0.0,0.0,0.0,0.0,0.0,0.0,0.0,0.17637658,0.0,-1.3594593,0.0,-0.32888615,0.0,0.0,0.0,0.046250846,0.0,0.0,0.0,0.0,0.0,-0.2332826,0.0,0.0,0.0,0.0,0.42524248,0.0,-0.6428334,0.0,0.0,0.0,0.0,0.0,-0.10710534,0.0,0.0,0.059849113,0.0,0.0,0.0,0.0,0.0,0.17159921,0.0,-1.0125841,0.0,0.0,0.0,0.0,0.0,-0.40273714,0.0,0.0,0.0,0.0,0.0,0.0,0.22022407,0.0,0.0,0.0,0.0,0.0,0.0,0.0,0.0,0.0,0.0,0.0,0.0,0.021815473,0.0,0.0,0.0,0.37442377,0.0,0.0,0.0,0.0,0.0,0.0,0.0,0.0,0.0,0.0,0.0,0.0,0.0,0.0,0.0,0.0,0.0,0.0,0.0,0.0,0.0,0.0,0.0,0.0,0.0,0.77619004,0.0,0.0,0.0,-0.18898027,0.0,0.0,0.08302091,0.0,0.0,0.0,0.0,0.0,0.0,0.0,0.0,0.0,0.2855247,0.0,0.0,0.0,0.0,0.0,-0.16758184,0.0,0.0,0.0,0.0,0.0,0.0,0.0,0.0,0.0,0.0,0.0,0.0,0.0,0.0,0.0,0.0,0.0,0.0,0.0,0.0,-0.72093,0.0,0.0,0.0,0.0,0.0,0.0,1.9986326,0.7373858,0.0,0.0,0.0,0.0,0.0,0.0,0.0,0.0,0.0,0.0,0.0,0.0,0.0,0.0,0.0,0.0,0.0,0.0,0.0,0.30783588,0.0,0.0,0.0,0.0,0.0,-0.20228471,0.0,0.0,0.0,0.0,0.0,1.0586891,0.0,0.0,0.0,0.0,0.0,1.1660516,0.0,0.0,0.0,0.0,0.0,0.0,0.0,0.0,0.0,0.0,0.0,0.0,0.0,0.0,0.0,0.0,1.0395672,0.0,0.0,0.0,0.0,0.23494522,0.0,0.0,0.0,0.0,0.0,0.0,0.0,0.0,0.0,0.0,0.0,0.0,0.0,0.0,0.5261899,0.0,0.0,0.0,0.0,0.0,0.0,0.0,0.0,0.0,0.0,0.0,0.0,0.00061096996,0.0,0.0,0.11597773,0.0,0.0,0.0,0.0,-0.13173373,0.0,0.0,0.0,0.0,0.04840897,0.0,0.0,0.0,0.0,-0.076925725,0.0,0.0,0.0,0.0,0.0,0.0,0.0,0.0,0.0,0.0,0.0,0.0,0.0,0.0,0.0,0.0,0.0,0.0,0.0,0.0,1.5928953,0.0,0.0,0.0,0.0,0.0,0.0,0.0,0.0,0.0,0.0,0.0,0.0,0.0,0.0,0.0,0.0,0.0,0.0,0.0,0.0,0.0,0.0,0.0,0.12957667,0.0,0.0,0.0,0.0,0.0,0.0,0.0,0.0,0.0,0.0,0.0,0.21504056,0.0,0.0,0.0,0.0,0.0,0.0,0.0,0.3210166,0.0,0.0,0.0,0.0,0.0,0.4600339,0.0,0.0,0.0,0.0,0.45682672,0.13407648,0.0,-0.49764606,-0.125219,0.0,0.0,0.0,0.0,0.23715104,0.0,0.0,0.0,0.0,0.0,0.0,0.0,0.0,0.0,0.039415237,0.0,0.0,0.0,0.0,0.0,0.0,0.0,0.0,0.0,0.0,0.0,0.0,0.0,0.0,0.0,0.0,0.41529036,0.0,0.0,0.0,0.0,0.0,0.0,0.0,0.0,0.0,0.0,-0.22304535,1.3821058,0.0,0.0,0.0,0.0,0.0,0.0,0.0,0.0,0.0,0.0,0.8639616,0.0,0.0,0.0,0.0,0.0,0.0,0.0,0.0,0.0,0.0,0.0,0.0,0.43581784,-0.08343265,0.0,0.0,0.0,0.0,0.0,0.0,0.0,0.0,0.0,0.0,0.0,0.0,0.0,0.0,0.0,-0.22470546,0.0,0.0,0.0,0.0,0.0,0.0,0.0,0.0,-0.16235296,0.0,0.0,0.0,0.0,0.0,0.0,0.0,0.09981077,0.0,0.0,-0.54677016,0.0,0.0,0.0,0.0,0.0,0.0,0.0,0.0,0.0,0.0,0.0,0.0,0.0,0.0,0.0,0.0,0.0,0.0,0.0,0.0,0.0,0.0,0.0,0.0,0.0,0.0,0.0,0.0,0.0,0.0,0.8293824,0.0,0.0,-0.45514712,0.0,0.0,0.0,0.0,0.0,0.0,0.0,0.0,0.0,0.0,0.0,0.14113516,0.0,0.0,0.0,0.0,0.0,0.0,0.21346797,0.0,-1.2012448,0.0,0.0,0.0,0.0,0.0,0.0,0.0,0.0,0.0,0.0,0.0,0.0,0.0,0.0,0.0,0.0,0.0,0.0,0.0,0.0,0.0,0.0,0.0,0.0,0.0,0.0,0.0,0.0,0.0,0.0,0.0,0.0,0.0,0.0,0.0,0.19566424,0.0,0.0,0.0,0.0,0.0,0.0,-1.1591462,0.0,0.0,0.0,0.0,-0.01894015,0.0,0.0,0.0,0.0,0.9381654,0.0,0.0,0.0,0.0,0.0,0.0,0.0,0.0,0.0,0.0,0.0,0.0,0.0,-0.51039857,0.0,0.0,0.0,0.0,0.0,0.6425274,0.1523733,0.0,0.0,0.0,0.0,0.0,0.0,0.0,0.0,0.0,0.0,0.0,0.0,0.0,0.0,0.0,0.0,0.0,0.0,0.0,0.0,0.09559897,-0.037394892,-1.3598309,0.0,0.0,0.0,1.7465447,0.0,0.0,0.0,0.0,0.0,0.0,0.0,0.0,0.0,0.0,0.0,1.6477276,0.0,0.0,0.0,0.0,0.0,-0.028652338,0.0,0.0,0.0,0.0,0.0,0.0,0.0,0.0,0.0,0.0,0.0,0.0,0.0,0.0,0.24856663,1.3457326,0.0,0.0,0.0,0.0,0.0,0.0,0.0,0.0,0.0,0.0,0.0,0.0,0.0,0.0,0.0,0.0,0.0,0.0,0.0,0.0,0.0,0.0,0.0,0.0,0.0,0.0,0.0,0.0,0.0,0.0,0.0,-0.4019775,0.0,0.0,0.0,0.0,0.0,-0.4145089,0.0,-0.3130665,0.0,-1.0844878,0.0,-0.3647686,0.0,0.0,0.0,0.0,0.51041025,0.0,0.0,-0.49651432,0.0,0.0,0.0,0.0,0.0,0.0,0.0,0.0,0.0,0.38402495,0.0,0.0,0.0,0.0,0.0,0.0,0.0,0.0,0.0,0.0,0.0,0.0,0.0,0.0,0.0,0.0,0.0,0.0,0.0,0.0,0.0,0.0,0.0,0.0,0.0,0.0,0.0,0.0,0.0,0.0,0.0,0.0,0.0,0.46038714,0.0,0.0,0.0,0.0,0.0,0.0,0.0,0.0,0.0,0.0,0.0,0.0,0.0,0.0,0.0,0.0,0.0,0.0,-0.04881248,0.0,-0.06947537,0.0,0.0,0.01188825,0.0,0.0,0.0,0.0,0.0,0.0,0.0,0.0,0.0,0.0,0.0,0.0,0.0,0.0,0.2024767,0.0,0.0,0.0,0.0,0.0,0.0,0.0,0.0,0.0,0.0,0.0,0.123715065,-0.5428224,0.0,0.0,0.0,0.0,0.0,0.0,0.0,0.0,0.051086556,0.0,0.0,0.0,0.0,0.0,0.0,0.0,0.0,0.0,0.0,0.0,0.0,0.0,0.0,0.0,0.0,0.0,0.0,0.0,0.0,0.0,0.0,0.0,0.0,0.059362944,1.1010245,0.0,0.0,0.0,0.0,0.0,0.0,0.0,0.0,0.0,0.0,0.0,1.570077,0.0,0.0,0.0,0.0,0.0,-1.1359946,0.008252266,0.0,0.0,0.0,-0.14806308,0.0,0.0,0.0,0.0,0.0,0.0,0.0,0.14331229,0.0,0.100765936,0.0,0.0,0.13666803,0.0,0.0,0.0,0.0,0.0,0.0,0.0,0.0,0.0,0.0,2.89808,0.0,0.0,0.0,0.0,0.0,0.0,0.0,0.0,0.0,0.0,0.0,0.2198288,0.0,0.0,0.0,0.0,0.0,0.0,0.0,0.0,0.0,0.0,0.0,0.0,0.0,0.0,0.0,0.0,0.0,0.0,-0.40362474,0.0,0.0,0.0,0.0,0.0,0.0,0.0,0.0,0.0,0.0,0.0,0.0,0.0,0.0,0.0,0.0,0.0,0.0,0.0,0.62875015,0.0,0.0,0.0,0.0,0.0,0.0,0.0,0.0,0.0,0.0,-0.36657384,0.0,0.0,0.0,0.0,-1.1715462,0.0,0.0,0.0,0.0,0.105131395,0.0,0.0,0.0,0.0,0.0,-0.5179016,0.0,0.0,0.0,0.0,0.0,0.0,0.0,0.0,0.0,0.0,0.0,0.0,0.0,0.0,0.0,0.0,-0.7103798,0.0,0.0,0.0,0.0,0.0,0.0,0.0,0.0,0.0,0.0,0.059414882,0.0,0.0,0.0,0.0,0.0,0.0,0.0,0.26995534,0.0,0.0,0.0,0.0,0.0,0.0,0.0,0.0,0.0,0.4671932,0.0,0.0,0.0,0.0,0.0,0.0,0.0,0.0,0.0,0.0,0.0,0.0,0.0,0.0,0.9238251,0.0,0.0,0.0,0.0,0.0,0.0,0.0,0.90280503,0.0,0.0,0.0,0.0,0.36452994,0.0,0.0,0.0,0.0,0.0,0.0,0.0,0.0,0.0,0.0,0.0,0.0,0.0,0.0,-0.03122737,0.0,0.0,0.0,0.03077122,0.70541525,-0.092056334,0.0,0.0,0.0,0.0,0.0,0.0,0.0,0.0,0.0,-0.078610726,0.0,0.049689803,0.0,0.0,0.0,0.0,0.0,0.0,0.0,0.0,0.34442893,0.0,0.0,0.0,0.0,0.0,1.3070238,0.0,0.0,0.0,0.0,0.0,0.0,0.81580544,0.0,0.0,0.0,0.0,0.0,0.0,0.0,0.0,0.0,0.0,0.0,0.0,0.0,0.0,0.0,0.0,0.0,0.0,0.0,0.0,0.1928075,0.0,0.0,0.0,0.0,0.0,0.0,0.0,-0.1583267,0.0,0.0,0.0,0.0,0.0,0.0,0.0,0.078962035,0.0,0.0,0.0,0.0,0.0,0.0,0.0,0.0,-0.08831212,0.0,0.0,0.0,0.0,0.0,0.0,0.124116585,0.0,0.0,-0.0963397,0.0,-0.055236388,0.0,0.0,0.0,-0.22145383,0.0,0.0,0.0,0.0,-0.3350715,0.0,0.0,0.0,0.0,0.0,0.0,-0.0791716,0.0,-0.17916302,0.0,0.0,0.0,0.0,0.0,0.20718677,0.0,-0.015785316,0.0,0.0,0.0,0.0,0.0,0.0,0.0,0.0,0.0,0.0,0.0,0.0,0.0,0.0,0.0,0.0,0.0,0.0,0.0,0.0,0.0,0.0,0.0,0.0,0.0,0.0,0.0,0.0,0.0,0.0,0.026601734,0.0,0.0,0.7637578,0.0,0.0,0.0,0.0,-0.0518167,0.0,0.0,0.0,0.0,0.0171748,0.0,0.0,0.0,0.0,0.0,0.0,0.0,0.0,0.0,0.0,0.0,0.0,0.0,0.0,0.0,0.0,0.0,0.0,0.0,0.0,0.0,-0.5807139,0.0,0.0,0.0,0.0,0.0,0.16100897,0.0,0.0,0.0,0.0,0.0,0.0,0.0,0.0,0.0,0.0,0.0,0.04751064,0.0,0.0,0.0,0.0,0.0,0.0,0.0,0.0,0.0,0.0,0.0,0.26725522,-0.14780642,0.0,0.0,0.0,0.0,0.0,0.0,0.0,0.0,0.0,0.0,0.0,0.0,0.0,-0.120679915,0.0,0.0,0.0,0.9627527,0.04164076,0.0,0.0,0.10553383,0.0,0.0,0.0,0.87676316,0.0,0.0,0.0,0.0,0.8985736,0.0,0.0,0.0,0.0,0.38062856,0.0,0.11846849,0.0,0.0,-0.2048135,0.0,0.0,0.0,0.0,-0.021764845,0.13666356,0.0,0.0,0.0,0.0,0.0,0.0,0.0,0.0,0.0,0.0,0.0,0.0,0.0,0.0,0.0,0.0,0.0,0.0,-0.18184572,0.0,0.0,0.0,0.0,0.0,0.0,0.0,0.0,0.0,0.0,0.49238086,0.0,0.0,0.0,0.0,0.71755284,0.0,0.0,0.0,0.0,0.0,0.0,0.0,0.0,-0.58239925,0.0,0.0,0.0,0.0,0.0,-1.0998155,0.0,0.0,0.41676542,0.0,0.0,0.0,0.0,0.0,0.0,0.0,0.18697977,0.0,0.0,-0.11875864,0.0,0.0,0.121233724,0.0,0.0,0.0,0.0,0.0,0.0,0.0,0.0,0.55303717,0.2441593,0.0,0.0,0.0,0.0,0.0,0.0,0.075351946,0.0,0.0,0.0,0.0,0.15903133,0.0,-0.06280759,0.0,0.0,0.0,0.0,0.0,0.0,0.0,0.0,-0.03740101,0.0,0.0,0.0,0.34876534,0.0,-0.23628175,0.0,0.0,0.0,0.0,0.0,0.0,0.0,0.0,0.9359546,0.0,0.0,0.0,0.0,0.0,0.0,0.0,0.0,0.0,0.0,0.0,0.0,0.0,0.0,0.0,0.0,0.0,0.0,0.0,0.0,0.0,0.0,0.0,0.0,0.0,0.38260213,0.0,0.0,0.4736003,0.0,1.1352762,0.0,0.0,0.0,-0.04195069,0.0,0.0,0.0,0.0,0.0,0.0,0.0,0.0,0.0,0.0,2.0342693,0.0,0.0,0.0,0.0,0.0,0.0,0.0,0.0,0.0,0.0,0.0,0.0,0.0,0.0,0.0,0.0,0.0,1.007194,0.0,0.0,0.0,0.0,0.095496885,0.0,0.0,0.0,0.0,0.0,0.0,0.0,0.0,0.0,0.0,0.0,0.0,0.0,0.0,0.0,0.0,0.0,-0.588528,0.0,-0.33718264,0.0,0.0,0.0,0.0,0.0,0.0,0.0,0.0,0.0,0.0,0.0,0.0,-0.65205,0.0,0.0,0.0,0.0,0.2866411,0.0,0.0,0.0,0.0,0.0,0.0,0.0,0.0,0.7949354,0.0,0.0,0.0,0.0,0.0,0.0,0.0,0.0,0.0,0.0,0.0,0.0,0.0,-0.07162369,0.0,0.0,0.0,0.0,0.0,0.0,0.0,0.0,0.0,0.0,-0.8025114,0.0,-0.37240976,0.0,0.0,-0.7022664,0.0,0.0,0.0,0.0,0.0,0.0,0.0,0.0,0.0,0.0,0.0,0.0,0.0,0.0,0.0,0.0,0.0,0.0,0.0,0.0,0.0,0.0,0.12922727,0.0,0.0,0.0,0.0,0.0,0.0,0.0,0.0,0.0,0.65657794,0.0,0.0,0.0,0.0,0.0,0.0,0.0,0.0,0.0,0.0,0.0,0.0,0.0,0.0,0.0,0.0,0.0,0.0,0.0,1.27254,0.0,0.0,0.0,0.0,0.0,0.0,0.0,1.6079028,0.0,0.0,0.0,0.0,0.0,0.0,0.0,0.0,0.0,0.0,0.0,0.0,0.0,-0.01627832,0.0,0.0,0.0,0.0,0.0,0.0,0.0,0.0,0.0,0.0,0.0,0.0,0.0,0.0,0.0,0.0,0.0,0.0,0.0,1.3080258,0.0,0.0,0.0,0.0,0.0,-0.05594101,0.0,0.0,0.0,0.0,0.20489436,0.0,0.088376105,0.0,0.0,0.0,0.0,-0.33243337,0.5727504,0.0,0.0,0.0,0.0,0.0,0.0,0.0,-0.18568854,0.0,0.0,0.0,0.0,0.0,-0.53554994,0.0,0.0,0.0,0.0,0.0,0.0,0.0,0.0,0.0,0.0,0.0,0.0,1.172018,0.0,0.0,0.0,0.0,0.0,0.0,0.0,0.0,0.0,0.0,0.0,0.0,0.0,0.0,0.0,0.0,0.0,0.0,0.0,0.0,0.0,0.0,0.0,0.0,0.0,0.0,0.0,0.0,0.0,0.0,0.0,0.0,0.0,-0.3955573,0.0,0.0,0.0,0.0,0.0,0.0,0.0,0.0,0.0,0.0,0.0,0.0,0.0,0.0,0.0,0.0,1.1687666,0.0,0.0,0.0,0.0,0.0,0.0,0.0,0.0,0.0,0.0,0.0,0.0,0.0,0.0,0.0,0.0,0.0,0.0,0.0,0.0,0.0,0.0,0.0,0.0,0.0,0.0,0.0,0.0,0.0,0.0,0.0,0.0,0.0,0.0,0.0,-0.23288894,0.03579958,0.0,0.0,0.0,0.0,0.0,0.0,0.0,0.0,0.0,0.0,0.07327618,0.0,0.0,0.0,-0.32369798,0.0,0.0,-0.2187971,0.0,0.0,0.0,0.0,0.0,0.0,0.0,0.0,0.0,0.0,0.0,1.3002992,0.0,0.0,0.0,0.0,0.0,0.0,0.41957498,0.0,0.0,0.0,0.0,0.0,0.0,0.0,0.0,0.0,0.0,0.0,0.0,0.0,0.0,0.0,0.5091504,0.56738406,0.0,0.0,0.0,0.0,0.0,0.0,0.0,0.0,0.0,0.0,0.0,0.0,0.0,0.0,0.0,0.0,0.0,0.0,0.0,0.0,0.0,0.0,0.0,0.0,0.0,0.0,0.0,0.0,0.0,0.0,0.0,0.0,0.0,-0.1477558,0.0,0.0,-0.052138984,0.2240264,0.0,0.0,0.0,0.50323933,0.24882394,0.0,0.0,0.0,0.0,0.0,0.0,0.2553212,0.0,0.0,0.0,0.37751386,0.0,0.0,0.0,0.0,0.0,0.0,0.093538225,0.0,-0.56100476,0.0,0.0,0.0,0.0,0.0,0.0,0.07440045,0.0,0.0,0.0,0.0,0.0,0.0,0.0,0.0,0.0,0.0,0.0,0.0,0.0,0.0,0.8754389,0.0,0.0,-0.0003489057,0.0,0.0,0.0,0.0,0.0,0.0,0.0,0.0,0.0,0.0,-0.30326906,0.0,0.0,0.0,0.0,0.0,0.0,0.0,0.0,0.0,0.0,0.0,0.0,0.0,0.0,0.0,0.0,0.0,0.0,0.0,0.0,0.0,0.0,0.0,0.0,0.0,0.0,0.0,0.0,0.0,0.29186764,0.0,0.0,0.0,-0.35547066,0.0,0.0,0.0,0.0,0.0,0.0,0.0,0.0,0.0,0.0,0.0,0.0,0.0,0.0,0.0,0.0,0.0,0.0,0.0,0.0,0.0,0.0,0.0,0.0,0.0,0.0,0.0,0.0,0.0,0.0,0.0,0.0,0.0,0.0,0.0,0.0,0.0,0.0,0.0,0.0,0.0,0.0,0.0,0.0,0.0,0.0,0.0,0.0,0.0,0.0,0.0,0.0,-0.33564833,0.0,0.0,0.0,0.0,0.0,0.0,-0.30618107,0.0,0.0,0.0,0.0,0.0,0.0,0.0,0.0,0.0,0.0,0.0,0.0,0.0,0.0,0.0,0.0,0.0,0.0,0.0,0.0,0.0,0.0,0.0,0.0,0.0,0.0,0.0,0.0,0.0,0.0,0.0,0.0,0.0,0.0,0.0,0.0,0.0,0.0,0.0,0.0,0.0,0.0,-0.5271776,0.0,0.55527055,0.0,0.0,0.0,0.0,0.0,0.0,0.0,0.04907936,0.11371774,0.0,0.07701875,0.0,0.0,0.0,0.0,0.904036,0.0,-1.1065254,0.0,0.0,0.0,0.0,0.0,0.0,0.0,0.0,0.0,0.0,0.0,0.0,-0.03825504,0.0,0.0,0.0,0.0,0.0,0.0,0.0,0.0,0.39386132,0.0,0.27352458,0.0,0.0,0.0,0.0,0.0,0.0,0.0,0.5709022,0.0,0.0,0.0,0.0,0.0,0.0,0.0,0.0,0.0,0.0,0.0,0.0,0.0,0.003156603,0.0,0.0,0.0,0.0,0.0,0.20733373,0.0,-0.32661518,-0.18532014,-0.74095553,0.0,0.0,0.0,0.0,0.0,0.0,0.0,0.0,0.0,0.0,0.0,0.0,0.0,0.0,0.0,0.47969174,-0.0013702909,0.0,0.5404466,0.0,0.0,0.0,0.0,0.0,0.0,0.0,0.0,0.0,0.0,0.0,0.0,0.0,0.0,0.0,0.0,0.0,0.0,0.0,0.0,0.0,0.0,0.016126717,0.0,0.0,0.0,0.0,0.0,0.0,0.0,-0.28567803,0.0,1.1033297,0.0,0.0,0.0,0.0,0.0,0.0,0.0,0.0,0.0,0.0,0.0,0.0,0.0,0.0,0.0,0.0,0.0,0.0,0.0,0.0,0.0,0.0,0.0,0.0,0.0,0.0,0.0,-0.1888659,0.0,0.0,0.0,0.0,0.0,0.0,0.0,0.0,0.0,0.0,0.0,-0.1650977,0.0,0.0,0.0,0.0,0.0,0.0,0.0,0.0,0.0,0.0,0.0,0.0,0.0,0.35145304,0.0,0.0,0.0,1.360665,0.0,0.0,0.0,0.15508504,0.0,0.52904993,0.0,0.0,0.48138162,0.0,0.0,0.0,0.0,0.0,0.0,0.0,0.0,0.0,0.0,0.0,0.0,0.0,0.0,0.0,0.0,0.0,0.0,0.0,0.0,0.0,0.0,0.0,0.0,0.0,0.0,0.0,0.0,0.0,1.3389516,-0.78756917,0.0,0.0,0.0,0.0,0.0,0.0,0.0,0.0,0.0,0.0,0.0,0.82627696,0.0,0.0,0.0,0.0,0.0,0.0,0.0,0.0,0.0,0.0,0.0,0.0,0.0,0.26360232,-0.17573214,0.0,0.02637156,0.0,0.0,0.7139144,0.0,0.034438085,0.0,0.0,0.0,0.0,0.0,0.0,0.0,-0.6936307,0.0,0.0,0.0
id10002,0.0,0.0,0.0,-0.5764268,0.0,0.0,0.39175498,-0.07700433,0.0,0.44563374,0.0,0.50234497,0.0,0.0,0.0,0.3593149,0.0,0.0,0.0,0.0,0.0,0.0,0.0,-0.15516306,0.0,0.0,0.0,0.0,0.0,0.0,0.0,0.0,0.0,0.0,0.0,0.0,0.0,0.0,0.0,0.0,0.0,0.0,0.0,0.0,0.0,0.0,0.0,0.0,0.0,0.6053123,0.0,0.59349364,0.0,0.0,0.0,0.0,0.0,-0.022217035,0.0,0.0,0.0,0.0,0.0,0.41571918,0.0,0.0,0.0,0.0,0.0,0.0,0.0,0.0,0.0,0.0,0.0,0.0,0.0,0.0,0.0,0.43561205,0.0,0.0,0.0,-0.52430606,0.0,0.56820655,0.0,0.0,0.0,0.0,0.0,0.0,0.0,0.0,0.504849,0.0,-0.49558774,0.0,0.0,0.0,0.0,0.0,0.0,0.0,0.0,0.0,0.0,0.0,0.0,0.0,1.3821442,0.0,0.0,0.0,0.0,0.0,0.0,0.0,0.0,0.0,0.0,0.16659448,0.0,-0.27839458,0.0,0.0,0.0,0.0,0.0,0.0,0.0,0.0,0.0,0.0,0.5793696,0.0,0.0,0.0,0.0,0.0,0.0,0.0,0.0,-0.24732572,0.9169655,0.0,0.0,0.0,0.0,0.0,0.0,0.0,0.0,0.0,0.0,0.0,0.0,0.36637667,0.06373287,0.0,0.0,0.0,0.0,0.0,0.0,0.0,0.0,0.0,0.0,0.14554335,0.0,0.0,0.0,0.0,0.0,0.0,0.0,0.0,0.0,0.0,0.0,0.30973706,0.0,0.0,0.0,0.0,0.0,0.0,-0.18173365,0.0,0.0,0.0,0.0,0.0,0.0,0.0,0.0,0.0,0.0,1.6394321,0.0,0.0,0.0,0.0,-0.6077306,0.0,0.0,1.6160579,0.0,0.0,-0.16632764,0.0,0.0,0.0,0.0,0.0,0.0,0.0,-1.0121279,0.0,2.0712903,0.0,0.0,0.0,0.0,0.0,0.0,0.0,-0.26509318,0.0,0.0,0.0,0.0,0.0,0.0,0.0,0.0,0.0,0.0,-0.27431366,0.0,0.0,0.0,0.0,0.0,0.0,0.0,0.0,0.0,0.61242574,0.75699335,0.0,0.0,0.0,0.0,0.0,0.0,0.0,0.0,0.0,0.0,0.0,0.0,0.0,-0.31066483,0.0,0.0,0.0,0.0,0.0,0.0,0.31941012,0.0,0.0,0.0,0.0,0.0,0.0,0.0,0.0,0.0,0.0,0.0,0.0,0.0,0.0,0.0,0.0,0.0,0.42615595,0.0,0.0,0.0,0.0,0.0,0.0,0.0,0.0,0.0,0.0042776456,0.0,0.0,0.0,0.0,0.0,0.0,0.0,0.0,0.0,0.0,0.0,0.0,0.0,0.0,0.0,0.0,0.0,0.0,0.0,-0.22457747,0.0,0.0,0.0,0.0,0.57188797,0.0,0.17956084,0.0,0.044032957,0.0,0.0,0.0,0.0,0.0,0.0,0.0,0.84349734,0.0,0.0,0.0,0.0,0.0,0.0,0.0,0.0,0.0,0.0,0.0,0.0,0.0,0.0,0.0,0.0,0.0,0.0,0.0,0.0,0.0,0.0,0.0,0.0,0.0,0.0,0.0,0.0,0.0,0.0,0.0,0.0,0.0,0.0,0.0,0.0,0.0,-0.18881762,0.0,0.0,0.0,0.0,0.0,0.0,0.0,0.0,0.0,0.0,0.0,0.053385228,0.0,-0.03780558,0.0,0.22546029,0.0,0.0,-0.23720957,0.0,0.0,0.0,0.0,0.0,0.0,0.0,-0.41502118,0.0,0.0,0.0,0.0,0.0,0.0,0.0,0.0,0.0,0.0,0.0,0.0,0.0,-0.12534852,0.0,0.0,0.0,0.0,0.0,0.0,0.0,0.0,0.0,0.0,0.0,0.0,0.0,0.0,0.0,0.0,0.0,0.0,0.0,0.0,0.0,0.0,0.0,0.0,0.0,0.0,0.0,0.0,0.0,0.0,0.0,0.0,-0.03153875,0.0,0.0,0.0,0.0,0.0,0.0,0.0,0.0,0.0,0.0,0.0,0.0,0.0,0.0,0.043826878,0.0,0.0,-0.6571773,0.0,0.0,0.0,0.0,0.0,0.3011509,0.0,0.0,0.0,0.0,0.0,0.0,0.0,0.0,0.0,0.0,0.0,0.0,0.0,0.0,0.0,0.0,0.0,0.0,0.0,0.0,0.0,0.0,0.0,0.0,0.0,0.0,0.0,0.0,0.0,-0.17042308,0.0,0.40368918,0.0,0.0,0.0,0.0,0.0,0.0,0.0,0.0,0.0,0.0,0.0,0.0,0.0,0.0,0.0,0.0,0.0,0.0,0.0,0.0,0.0,0.0,0.0,0.0,0.0,0.0,0.37298617,0.0,0.0,0.0,0.0,0.0,0.0,0.0,0.0,0.0,0.0,0.0,0.0,0.0,0.0,1.1033584,-0.28228304,0.0,0.0,-1.2033565,0.0,0.0,0.0,0.0,0.0,0.0,0.0,0.0,0.0,0.0,0.0,0.0,0.0,0.0,0.0,0.0,0.0,0.3328303,0.0,0.0,0.0,0.0,0.0,0.0,0.16115771,0.0,0.0,0.0,0.0,0.0,0.0,0.0,0.0,0.0,0.0,0.0,0.0,0.0,0.0,0.0,0.04952504,0.0,0.0,0.0,0.46554235,0.0,0.0,0.0,0.25102255,-0.3700386,0.0,0.0,0.0,0.0,0.0,-0.22267993,0.0,0.0,0.0,0.0,0.0,0.0,0.0,0.0,0.0,0.0,0.0,0.0,0.0,0.0,0.0,0.0,0.0,0.0,0.0,0.0,0.0,0.0,-0.015542998,0.0,0.0,0.0,1.1298982,0.0,0.0,0.095541865,-0.059841674,0.0,0.0,0.0,0.0,0.0,0.0,0.0,0.0,0.0,0.0,0.0,0.0,0.0,0.0,-0.006718824,0.0,0.0,0.0,0.0,0.0,0.0065785064,0.0,0.0,0.0,0.0,0.0,0.0,0.0,0.0,0.0,0.0,0.0,0.0,0.0,0.0,0.0,-0.1184525,0.0,0.0,0.0,0.0,0.0,0.0,0.0,-0.52833855,0.0,0.0,0.0,0.0,0.0,0.0,0.0,0.0,0.0,0.0,0.0,0.0,0.0,0.0,0.0,0.0,0.0,0.0,0.0,0.0,0.0,0.0,0.0,0.0,0.0,0.0,0.0,0.0,0.0,0.0,0.0,0.0,0.0,0.0,0.52392507,0.0,0.0,0.0,0.0,0.0,0.0,0.0,0.0,0.0,2.1122642,0.0,0.0,0.0,0.0,0.0,0.0,0.0,0.0,0.0,0.0,0.0,0.0,0.30441707,0.0,0.0,0.0,0.0,-0.5622514,0.0,0.0,0.0,0.0,0.0,0.0,0.0,0.0,0.0,0.0,0.0,0.0,0.0,0.0,0.0,0.0,0.0,0.0,0.0,0.0,0.3314081,0.0,0.0,0.0,0.0,0.0,0.0,0.0,0.0,0.0,-0.02118046,0.0,0.0,0.0,0.0,0.0,0.0,0.0,0.0,0.0,0.0,0.0,0.0,0.0,0.39311746,0.0,0.0,0.0,0.0,0.0,0.0,0.0,0.0,0.0,-0.11998355,0.0,0.0,0.0,0.0,0.0,0.0,0.0,0.0,0.0,0.0,0.0,0.0,0.0,0.0,0.0,0.0,0.0,0.0,0.0,0.0,0.6365193,0.0,0.0,0.0,0.0,0.0,0.0,0.0,0.0,0.0,0.0,0.2199422,-0.79441214,0.0,0.0,0.0,0.0,0.0,0.0,0.0,0.0,0.0,0.0,0.0,0.0,0.0,0.0,0.0,0.0,-0.20526494,0.0,0.0,0.0,0.0,0.0,0.0,0.0,0.0,0.0,0.0,0.0,0.0,0.0,0.0,0.0,0.10937399,0.0,0.0,0.0,0.0,0.0,0.0,0.0,0.0,0.0,0.0,0.0,0.0,0.0,0.43358713,1.9206295,0.0,0.0,0.0,0.0,0.0,0.0,0.0,0.0,0.0,0.0,0.0,0.0,0.0,0.0,0.0,0.0,0.0,0.0,0.0,0.0,0.0,0.7581632,0.0,0.0,0.0,0.0,0.0,0.0,0.0,0.0,0.0,0.0,0.0,0.0,0.0,0.0,0.0,0.95985574,0.0,0.0,0.0,0.0,0.0,0.0,0.0,0.0,0.0,0.0,0.0,0.0,-0.101482995,0.0,-0.07865018,0.0,0.0,0.0,0.0,0.0,0.0,0.0,0.0,0.0,0.0,0.0,0.0,0.0,0.0,0.0,0.0,0.0,0.0,0.0,0.0,0.0,0.0,0.0,0.0,0.0,0.0,0.0,0.0,0.0,0.0,0.0,0.0,0.0,0.0,0.0,0.32625756,0.0,0.0,0.0,0.0,0.0,0.0,0.0,0.0,0.0,0.16287707,0.0,0.0,0.0,-0.6977721,0.0,0.0,0.0,0.0,0.0,0.0,0.0,0.0,-0.067393556,0.0,0.0,0.0,0.0,0.0,0.0,0.0,0.0,0.0,0.0,0.0,0.0,0.0,0.0,0.0,0.0,0.0,0.0,0.0,0.0,0.0,0.0,0.0,0.0,-0.08970063,0.0,0.0,0.0,-0.0033039488,0.0,0.0,0.0,0.24290676,0.0,0.23829252,0.0,0.0,-0.79007244,0.0,0.0,0.0,0.11168063,0.0,0.44737446,0.0,0.0,0.0,0.0,0.13096957,0.0,0.0,0.0,0.0,0.0,0.0,0.0,0.0,0.0,0.0,0.0,0.0,0.0,0.0,0.0,0.0,0.0,0.0,0.0,0.0,0.0,0.0,0.0,0.0,0.26901332,0.0,0.0,0.0,0.0,0.0,0.0,0.0,0.0,0.0,0.0,0.0,0.0,0.0,0.0,0.0,0.0,0.0,0.0,0.0,0.0,0.0,0.0,0.0,0.0,0.3599275,0.0,0.0,0.0,0.0,0.0,0.0,0.0,0.0,0.0,0.0,0.0,0.0,0.0,0.0,0.0,0.0,0.0,0.0,0.0,0.0,0.0,0.0,0.0,0.0,0.0,0.0,0.0,0.0,0.0,0.0,0.0,0.0,0.16502428,0.0,0.0,-1.6129962,0.0,0.0,0.0,0.0,0.0,0.0,0.0,0.0,0.0,0.0,0.0,0.0,0.0,0.0,0.0,0.0,0.0,0.0,0.0,0.0,0.0,0.0,0.0,0.0,1.8578618,0.0,0.0,0.0,0.0,0.0,0.0,0.0,0.0,0.0,0.0,-0.25377366,0.0,0.0,0.0,0.0,0.0,0.0,0.15306003,0.0,0.0,0.0,0.0,0.0,0.0,0.34772062,0.0,0.0,0.087628,0.0,0.0,0.0,0.0,0.0,0.0,0.0,0.0,0.0,0.0,0.0,-0.11351227,0.0,0.0,0.0,0.0,0.0,0.21932371,0.0,0.0,0.0,0.030426666,0.0,0.0,0.0,0.0,0.0,0.0,0.0,-0.48264253,0.0,0.0,0.0,0.0,0.0,0.0,0.0,0.0,0.0,0.0,0.0,0.45821553,0.0,0.30614462,0.0,0.0,0.0,0.1213459,0.0,0.0,0.0,0.0,0.0,0.0,0.0,0.0,0.0,0.8056825,0.0,0.0,0.0,0.0,0.0,-0.76910555,0.0,0.0,0.0,0.0,0.0,0.0,0.0,0.0,0.0,0.0,0.0,0.0,0.0,0.0,0.79000396,1.0942154,0.0,0.0,0.0,0.0,0.0,-1.1060259,0.0,0.4547633,0.0,0.0,0.0,0.0,0.0,0.0,0.9389266,0.0,0.0,0.0,0.0,0.0,0.0,0.0,0.0,0.0,0.0,0.053114202,0.0,0.0,0.0,0.0,0.0,0.0,0.0,0.0,0.0,0.0,0.0,0.0,0.0,0.0,0.0,0.0,0.0,0.0,0.0,0.0,0.0,-0.011782929,0.0,0.0,0.0,0.0,0.0,-1.098179,0.0,0.0,0.0,0.0,0.0,0.0,1.0730915,0.0,1.5121523,0.0,0.22470123,0.0,0.0,0.29538688,0.0,0.0,0.0,0.0,0.0,0.0,0.0,0.0,0.0,0.0,0.0,0.0,0.0,0.0,0.0,0.0,0.0,0.0,0.0,0.0,0.0,0.0,0.0,0.0,0.0,0.0,0.0,0.0,0.0,0.0,0.0,0.0,0.0,0.0,0.0,-0.17797174,0.0,0.49119797,0.0,-0.024457613,0.0,0.0,0.0,0.0,-1.4271144,0.0,0.0,0.0,0.0,0.0,-0.097169265,0.0,0.0,0.0,0.0,0.0,0.0,0.0,0.0,0.0,0.0,0.0,0.0,0.0,0.0,0.0,0.0,0.0,0.0,0.0,0.113419466,0.0,0.0,0.0,0.0,0.0,0.0,0.0,0.0,0.0,0.0,0.0,0.0,0.0,0.0,0.0,0.0,0.0,0.0,0.0,0.0,0.0,0.0,0.0,0.0,0.0,0.0,0.0,0.0,0.0,0.0,0.0,0.0,0.0,0.0,0.0,0.0,0.0,0.0,0.0,0.0,0.0,0.0,0.0,0.0,0.0,0.0,0.0,0.0,0.0,0.0,0.30086064,-0.8790509,0.0,0.0,0.0,0.0,-0.27909264,1.7967327,0.06384566,0.0,0.0,0.0,0.0,-0.034751836,0.0,0.0,0.0,0.0,0.0,-0.4166352,0.0,-1.2590743,0.0,0.0,0.0,0.0,0.0,0.0,0.0,0.0,0.0,0.0,-0.41677687,0.0,0.0,0.0,-1.091464,0.0,0.0,0.0,0.0,0.0,0.0,0.0,0.0,-0.014808509,0.0,0.0,0.0,0.0,0.0,0.0,0.0,0.0,0.0,0.8501696,0.0,0.0,0.0,0.0,0.0,0.0,0.0,0.0,0.0,0.0,0.0,0.0,0.0,0.0,0.0,0.0,0.40558246,0.0,0.63747627,0.40536818,0.0,0.0,0.0,0.0,0.0,0.0,0.0,0.0,0.0,0.0,0.0,-0.047352105,0.0,0.0,0.0,0.0,0.0,0.0,0.0,0.0,0.0,0.0,0.28432646,-0.62287736,0.0,0.17205836,0.0,0.0,0.0,0.0,0.0,0.0,0.0,0.0,0.0,0.0,0.0,0.0,0.0,0.0,0.0,0.0,0.0,0.0,0.0,0.0,-0.39185557,0.0,-0.69689316,0.0,0.0,0.0,0.0,0.0,0.0,0.0,0.0,0.0,0.0,0.0,-0.0067647374,0.0,0.0,0.0,0.0,0.0,0.0,0.17667492,0.0,0.0,0.0,0.0,0.0,0.0,0.0,0.0,0.0,0.0,0.0,0.0,0.0,0.0,0.0,-0.072543465,0.0,0.0,0.0,0.0,0.0,0.0,0.0,0.0,0.0,0.0,0.0,0.0,0.0,0.0,0.0,0.0,0.0,0.0,0.0,0.0,0.0,0.0,0.0,0.0,0.0,0.0,0.47130576,0.3725474,0.0,0.0,0.0,0.0,0.0,0.0,0.0,0.0,0.0,0.0,0.0,0.0,0.0,0.0,0.0,0.0,0.0,0.0,0.0,0.0,0.0,0.0,0.0,0.0,-0.34110728,0.0,0.0,0.0,0.0,0.0,0.0,0.0,0.0,0.0,0.0,0.0,0.0,0.0,0.0,1.2523066,0.0,-0.00042825812,0.0,0.0,0.0,-0.32089135,0.0,0.0,0.0,0.0,0.0,0.0,0.0,0.0,0.0,0.0,0.0,0.0,0.0,0.0,0.0,0.0,0.0,0.0,0.0,-0.19477947,0.0,-0.30778182,0.0,0.0,0.13006689,0.0,0.0,0.0,0.0,0.0,0.0,0.0,0.0,0.0,0.0,0.0,0.0,0.0,0.0,0.0,0.0,0.0,0.0,0.0,0.0,0.0,0.0,-0.6238685,0.0,0.0,0.0,0.0,0.0,0.0,0.0,0.0,0.0,0.0,0.0,0.0,0.0,0.0,0.0,0.0,0.0,0.0,0.0,-0.326404,0.0,-1.2229227,0.0,0.0,0.0,0.0,0.0,0.0,0.0,0.0,0.0,0.0,0.0,-0.31075507,0.0,0.0,0.0,0.0,1.2637523,0.0,-0.8495349,0.0,0.0,0.0,0.0,0.0,0.8991701,0.0,0.0,-0.28717306,0.59997916,0.0,0.0,0.0,0.0,0.0,0.0,-1.7436827,0.0,0.0,0.0,0.0,0.0,-0.5592851,0.0,0.0,0.0,0.0,0.0,0.0,0.0,0.0,0.0,0.0,0.0,0.0,0.0,0.0,0.0,0.0,0.0,0.0,0.0,1.0221137,0.0,0.0,0.0,0.092397906,0.0,0.0,0.0,0.0,0.0,0.0,0.0,0.0,0.0,0.0,0.0,0.0,0.0,0.0,0.0,0.0,0.0,0.0,0.0,0.0,0.0,0.0,0.0,0.0,0.0,0.5538841,0.0,0.0,0.0,-0.04498123,0.0,0.0,0.0,0.0,0.0,0.0,0.0,0.0,0.0,0.0,0.0,0.0,0.0706201,0.0,0.0,0.0,0.0,0.0,-1.6214137,0.0,0.0,0.0,0.0,0.0,0.0,0.0,0.0,0.0,0.0,0.0,0.0,0.0,0.0,0.0,0.0,0.0,0.2485385,0.0,0.0,-1.2302186,0.02904308,0.0,0.0,0.0,0.0,0.0,0.1008688,0.04535176,0.0,0.0,0.0,0.0,0.0,0.0,0.0,0.4703633,0.0,0.0,0.0,0.0,0.0,0.0,0.0,0.0,0.0,0.0,0.0,0.0,0.28132316,0.0,0.0,0.0,0.0,0.19454277,0.0,0.0,0.0,0.0,0.0,0.76566947,0.0,0.0,0.0,0.0,0.0,-0.31517988,0.031829003,0.0,0.0,0.0,0.0,0.0,0.2737665,0.0,0.0,0.0,0.0,0.0,0.0,0.0,0.0,0.0,0.38369498,0.0,0.0,0.0,0.0,-0.44191384,0.0,0.0,0.0,0.0,0.0,0.0,0.0,0.0,0.0,0.0,0.0,0.0,0.0,0.0,0.413206,0.0,0.0,0.0,0.0,0.0,0.0,0.0,0.0,0.0,0.0,0.0,0.0,0.0,0.0,0.0,0.104142815,0.0,0.0,0.0,0.0,0.88458073,0.0,0.0,0.0,0.0,0.0,0.0,0.0,0.0,0.0,0.0,0.0,0.0,0.0,0.0,0.0,0.0,0.0,0.0,0.0,0.0,0.0,0.0,0.0,0.0,0.0,0.0,0.0,0.0,0.0,0.0,0.12715839,0.0,0.0,0.0,0.0,0.0,0.0,0.0,0.0,0.0,0.0,0.0,0.0,0.0,0.0,0.0,0.0,0.0,0.0,0.24440633,0.0,0.0,0.0,0.0,0.0,0.0,0.0,0.0,0.0,0.0,0.0,0.0,0.0,0.08409649,0.0,0.0,0.0,0.0,0.0,0.0,0.0,0.0,0.0,0.0,0.8973598,0.0,0.0,0.0,0.0,0.0,0.0,0.0,0.0,0.0,0.0,-0.028586615,0.5489184,0.0,-0.43398112,0.3460862,0.0,0.0,0.0,0.0,0.0,0.0,0.0,0.0,0.0,0.0,0.0,0.0,0.0,0.0,-0.97958606,0.0,0.0,0.0,0.0,0.0,0.0,0.0,0.0,0.0,0.39680198,0.0,0.0,0.0,0.0,0.0,0.0,-0.53135765,0.0,0.23267238,0.0,0.0,0.0,0.0,0.0,0.0,0.0,0.0,0.45327264,0.0,0.0,0.0,0.0,0.0,0.0,0.0,0.0,0.0,0.0,0.0,0.0,0.0,0.0,0.0,0.0,0.0,0.0,0.0,0.0,0.0,0.0,0.0,0.0,0.0,-0.18501322,0.0,0.0,0.0,0.0,0.0,0.0,0.0,0.0,0.0,0.0,0.0,0.0,0.0,0.0,0.0,-0.77569634,0.0,0.0,0.0,0.0,0.0,0.0,0.16098732,0.0,-0.005187946,0.0,0.16676354,0.0,0.0,0.0,0.0,0.0,0.71041447,0.0,0.0,-0.35802454,0.0,0.0,0.0,0.0,0.0,0.0,0.0,0.0,0.0,0.0,0.0,0.0,0.0,0.0,0.0,0.0,0.0,0.0,0.0,0.0,0.0,0.0,0.0,0.0,0.0,0.0,0.0,0.0,0.0,0.0,0.0,0.0,0.0,0.0,0.0,0.0,0.0,0.0,0.0,0.0,0.0,0.0,0.0,0.0,0.0,-0.2157385,-0.001630762,0.0,0.0,0.06716509,0.0,0.0,0.6522595,0.0,-0.16993344,0.0,0.0,0.0,0.0,0.0,0.0,0.0,0.0,0.0,0.0,0.0,0.0,0.0,0.0,0.0,0.0,0.0,0.0,0.0,0.0,0.0,0.0,0.0,0.0,0.0,0.0,0.0,0.0,0.0,0.0,0.0,0.0,0.0,0.0,0.0,0.4358727,0.0,0.0,0.0,0.0,0.0,0.0,-1.3940682,0.0,0.0,0.0,0.0,0.0,0.0,-0.3453415,0.0,0.0,-0.5107519,0.0,0.5426026,-0.0009515236,0.0,0.0,0.0,0.0,0.0,0.0,0.0,0.0,0.0,0.0,-0.3770552,0.0,0.0,0.0,0.0,0.0,0.0,-0.32398906,0.0,0.0,0.0,0.0,0.0,0.0,0.0,0.0,0.0,0.0,0.0,0.0,0.0,0.0,0.0,0.0,0.0,0.0,0.0,0.0,0.30459583,-0.25937513,-1.1969746,0.0,0.0,0.0,0.0,0.0,0.0,0.0,0.0,0.0,0.0,0.0,0.0,0.0,0.0,0.0,0.060869973,0.0,0.0,0.0,0.0,0.0,-0.09128889,0.0,0.0,0.0,0.0,0.0,0.0,0.0,0.0,0.0,0.0,0.0,0.0,0.0,0.0,0.0,0.6659866,0.0,0.0,0.0,0.0,0.0,0.0,0.0,0.0,0.0,0.0,0.0,0.0,0.0,0.0,0.0,0.0,0.0,0.0,0.0,0.0,0.0,0.0,0.0,0.086119056,0.0,0.0,0.0,0.0,0.0,0.0,0.0,-0.50755304,0.0,0.0,0.0,0.0,0.0,-0.19490911,0.0,-0.061137628,0.0,-1.2725105,0.0,-0.28652218,0.0,-0.10234935,0.0,0.0,0.18480556,0.0,0.0,0.0,0.0,0.0,0.0,0.0,0.0,0.0,0.0,0.0,0.0,-0.8033624,0.0,0.0,0.0,0.0,0.0,0.0,0.0,0.0,0.0,0.0,0.0,-0.18550499,0.6193314,0.0,0.0,0.0,0.67475116,0.0,0.0,0.0,0.0,0.0,0.0,0.57783526,0.0,0.0,0.0,0.0,0.0,0.0,0.0,0.0,0.0,0.832685,0.0,0.0,0.0,0.0,0.0,0.0,0.0,0.0,0.0,0.0,0.0,0.0,0.0,0.0,0.0,0.0,0.0,0.0,0.28552967,0.0,-0.421262,0.0,0.0,0.7887161,0.0,0.0,0.0,0.0,0.0,0.0,0.0,0.0,0.0,0.0,0.2061315,0.0,0.0,0.0,0.0,0.0,0.0,0.0,0.0,0.0,0.0,0.0,0.0,0.0,0.0,0.0,1.1978215,0.0,0.0,0.0,0.0,0.0,0.0,0.0,0.0,0.0,0.0,0.0,0.0,0.0,0.0,0.0,0.0,0.0,0.0,0.0,0.0,-0.02287064,0.0,0.0,0.0,0.0,0.0,0.0,0.0,0.0,0.0,0.0,0.0,0.0,0.0,0.50974315,0.021284744,0.0,0.0,0.0,-0.11498648,0.0,0.0,0.0,0.0,0.0,0.0,0.0,-0.4540742,0.0,0.0,0.0,0.0,0.0,-0.70183444,0.0,0.0,0.0,0.0,0.53186715,0.0,0.0,0.0,0.0,0.0,0.0,0.0,-0.25760576,0.0,0.9182021,0.03892966,0.0,0.0,0.0,0.0,0.0,0.0,0.0,0.0,0.0,0.0,0.0,0.0,2.7574434,0.0,0.0,0.0,0.0,0.0,0.0,0.0,0.0,0.0,0.13324323,0.0,0.0,0.0,0.0,0.0,0.0,0.0,0.0,0.0,0.0,0.0,0.0,0.0,0.0,0.0,0.0,0.0,0.0,0.0,0.0,-0.6125808,0.0,0.0,0.0,0.4681948,0.0,0.0,0.0,0.0,0.0,0.0,0.0,0.0,0.0,0.0,0.0,0.0,0.0,0.0,0.0,0.006433293,0.0,0.0,0.0,0.0,0.0,0.0,0.0,0.0,0.0,0.0,-0.71878606,0.0,0.0,0.0,0.0,-1.3556504,0.05006467,0.0,0.0,0.0,0.0,0.0,0.0,0.0,0.0,0.0,-0.58473796,0.0,0.0,0.0,0.0,0.0,0.0,0.0,0.0,0.0,0.0,0.0,0.10686809,0.0,0.19692652,0.0,0.0,0.21119389,0.0,0.0,0.0,0.0,0.0,0.0,0.0,0.0,0.0,0.0,-0.96827745,0.0,0.0,0.0,0.0,0.0,0.0,0.0,-1.4344957,0.0,0.0,0.0,0.0,0.0,0.0,0.0,0.0,0.0,-0.14886007,0.0,0.0,0.0,0.0,0.0,0.0,0.0,0.0,0.0,0.0,0.0,0.0,0.0,0.0,-0.5931646,0.0,0.0,0.0,0.0,0.0,0.0,0.0,0.24836214,0.0,0.0,0.0,0.0,0.0,0.0,0.0,0.0,0.0,0.0,0.0,0.0,0.0,0.0,0.0,0.0,0.0,0.0,0.0,0.037844777,0.0,0.0,0.0,-0.29909495,0.0,-0.19592069,0.0,0.0,0.0,0.0,0.0,0.0,0.0,0.0,0.0,-0.15322776,0.0,0.0,0.0,0.0,0.0,0.110447675,0.0,0.0,0.0,0.0,0.12893094,0.0,0.0,0.0,0.0,0.0,-0.7103876,0.0,0.0,0.0,0.0,0.0,0.0,0.66791356,0.0,0.0,0.0,0.0,0.0,0.0,0.0,0.0,0.0,0.0,0.0,0.0,0.0,0.0,0.0,0.0,0.0,0.0,0.0,0.0,0.0,0.0,0.0,0.0,0.0,0.0,0.0,0.0,-0.092745095,0.0,0.0,0.0,0.0,0.0,0.0,0.0,-0.38325906,0.0,0.0,0.0,0.0,0.0,0.0,0.0,0.0,-0.30328694,0.0,0.0,0.0,0.0,1.4922806,0.0,0.0,0.0,0.0,-0.32599065,0.0,-0.018634273,0.0,0.0,0.0,-1.2197216,0.0,0.0,0.0,0.0,-0.12954734,0.0,0.0,0.0,0.0,0.0,0.0,0.0,0.0,0.2088545,0.0,0.0,0.0,0.0,0.0,0.47840142,0.0,0.0,0.0,0.0,0.0,0.0,0.0,0.0,0.0,0.0,0.0,0.0,0.0,0.0,0.0,0.0,0.0,0.0,0.0,0.0,0.0,0.0,0.0,0.0,0.0,0.0,0.0,0.0,0.0,0.0,0.0,0.0,0.020546218,0.0,0.0,0.79806167,0.0,0.0,0.0,0.0,0.11501546,0.0,0.0,0.0,0.0,0.0,0.0,0.0,0.0,0.7921459,0.0,0.0,0.0,0.0,0.0,0.0,-0.32781577,0.0,0.0,0.0,0.0,0.0,0.0,0.0,0.0,0.0,0.0,-0.055831145,0.0,0.0,0.0,0.0,0.0,-0.0031022963,0.0,0.0,0.0,0.0,0.0,0.0,0.0,0.0,0.0,0.0,0.0,1.432962,0.0,0.0,0.0,0.0,0.0,0.0,0.0,0.0,0.0,0.0,0.0,0.0,-0.42438585,0.0,0.0,0.0,0.0,0.0,0.0,0.0,0.0,0.0,0.0,0.0,0.0,0.0,-0.17666173,0.0,0.0,0.0,0.9680817,-0.22803222,0.0,0.0,-0.5467892,0.0,0.0,0.0,0.7146498,0.0,0.0,0.0,0.0,0.0,0.0,0.0,0.0,0.0,0.49245504,0.0,0.15264359,0.0,0.0,-0.06259867,0.0,0.0,0.0,0.0,0.0,0.0,0.0,0.0,0.0,0.0,0.0,0.0,0.0,0.0,0.0,0.0,0.0,0.0,0.0,0.0,0.0,0.0,0.0,0.0,0.0,0.0,0.0,0.0,0.0,0.0,0.0,0.0,0.0,0.0,0.0,0.04349583,0.0,0.0,0.0,0.0,-0.17064309,0.0,0.0,0.0,0.0,0.0,1.469326,0.0,0.0,-0.20679815,0.0,0.0,0.0,0.0,0.0,-0.88360673,0.0,0.0,0.74639606,0.0,0.0,0.0,0.0,0.0,0.0,0.0,0.38249508,0.0,0.0,0.87118626,0.0,0.0,-0.15720443,0.0,0.0,0.0,0.0013946159,0.0,0.13528275,0.0,0.0,0.27274644,0.0,0.0,0.0,0.0,0.0,0.0,0.0,0.027546918,0.0,0.0,0.0,0.0,0.33131015,0.0,-0.19914205,0.0,0.0,0.0,0.0,0.0,0.0,0.0,0.0,-0.092082016,0.0,0.0,0.0,0.0,0.0,-0.21796934,0.0,0.0,0.0,0.0,0.0,0.0,0.0,0.0,0.23360203,0.0,0.0,1.0215602,0.0,0.0,0.0,0.0,0.0,0.0,0.0,0.0,0.0,0.0,0.0,0.0,0.0,0.0,0.0,0.0,0.0,0.0,0.0,0.30070314,0.0,0.0,-0.99218315,0.0,0.0,0.51446956,0.0,-0.033284634,0.0,0.0,0.0,-0.20210047,0.0,0.0,0.0,0.0,0.0,0.0,0.0,0.0,0.0,0.0,1.2098312,0.0,0.0,0.0,0.0,0.0,0.0,0.0,0.0,0.0,0.0,0.0,0.0,0.0,0.49384677,0.0,0.0,0.0,-0.26178992,0.0,0.0,0.0,0.0,0.29255116,0.0,0.0,0.0,0.0,0.0,0.0,0.0,0.0,0.0,0.0,0.0,0.0,0.0,0.0,0.0,0.0,0.0,-0.34387305,0.12855299,-0.68316656,0.0,0.0,0.0,0.0,0.0,0.0,0.0,0.0,0.0,0.0,0.0,0.0,-1.5726627,0.0,0.0,0.0,0.0,-0.043941576,0.0,0.0,0.0,0.0,0.0,0.0,0.0,0.0,0.6977172,0.0,0.0,0.0,0.0,0.0,0.0,0.0,0.0,0.0,0.0,0.0,0.0,0.0,-0.33675584,0.0,0.0,0.0,0.0,0.0,0.0,0.0,0.3809998,0.0,0.0,-0.55656576,0.0,-1.131615,0.0,0.0,-1.0166728,0.0,0.0,0.0,0.0,0.0,0.0,0.0,0.0,0.0,0.0,0.0,0.0,0.0,0.0,0.0,0.0,0.0,0.0,0.0,0.0,0.0,-0.12907055,0.0,0.0,0.0,0.0,0.0,0.0,0.0,0.0,0.0,0.0,0.6113335,0.0,0.0,0.0,0.0,0.0,0.0,0.0,0.0,0.0,0.0,0.0,0.0,0.0,0.0,0.0,0.0,0.0,0.0,0.0,-0.9153,0.0,0.0,0.0,0.0,0.0,0.0,0.0,0.46738425,0.0,0.0,0.0,0.0,0.0,0.0,0.0,0.0,0.0,0.0,0.0,0.0,0.0,0.0,0.0,0.0,0.0,0.0,0.0,0.0,0.0,0.0,0.0,0.0,0.0,0.0,0.0,0.0,0.0,0.0,0.23328267,0.0,0.0,-0.4432913,0.0,0.0,0.0,0.0,0.0,0.21385902,0.0,0.0,0.0,0.0,0.783063,0.0,0.0,0.0,0.0,0.0,0.0,0.0132901715,-0.11161613,0.0,0.0,0.8993299,0.0,0.0,0.0,0.0,0.0,0.0,0.0,0.0,0.0,0.0,-0.38438958,0.0,0.0,0.0,0.0,0.0,0.0,0.0,0.0,0.30505994,0.0,0.0,0.0,0.17260444,0.0,0.0,0.0,0.0,0.0,0.0,0.0,0.0,0.0,0.0,0.0,0.0,0.0,0.0,0.0,0.0,0.0,0.0,0.0,0.0,0.0,0.0,0.0,0.0,0.0,0.0,0.0,0.0,0.0,0.0,0.0,0.0,0.0,-0.7615638,0.0,0.0,0.0,0.0,0.0,0.0,0.0,0.0,0.0,0.0,0.0,0.0,0.0,0.0,0.0,0.0,0.14707102,0.0,0.0,0.0,0.0,0.0,0.0,0.0,0.0,0.0,0.0,0.0,0.0,0.0,0.0,0.0,0.0,0.0,0.0,0.0,0.0,0.0,1.1154631,0.0,0.0,0.0,0.0,0.0,0.0,0.0,0.0,0.0,0.0,0.0,0.0,0.0,-0.8634187,0.0,0.0,0.0,0.0,0.0,0.27765664,0.0,0.0,0.0,0.0,0.0,0.3405728,0.0,0.0,0.0,-1.1272725,0.0,0.0,-0.03930981,0.0,0.0,0.0,0.0,0.0,0.0,0.0,0.0,0.0,0.0,0.0,0.033175092,0.0,0.0,0.0,0.55470496,0.0,0.0,0.0,0.0,0.0,0.0,0.0,0.0,0.0,0.0,0.0,0.0,0.0,0.0,0.0,0.0,0.0,0.0,0.0,0.24879439,0.0,0.0,0.0,0.0,0.0,0.0,0.0,-0.052259546,0.0,0.0,0.0,0.0,0.0,0.0,0.0,0.0,0.0,0.0,0.0,0.0,0.0,0.0,0.0,0.0,0.0,0.0,0.0,0.0,0.0,0.0,0.0,0.0,0.0,0.3453488,0.0,0.0,-0.11953441,0.0,0.0,0.0,0.0,-0.4217251,0.29841498,0.0,0.0,0.0,0.0,0.0,0.0,1.0208403,0.0,0.0,0.0,1.8851987,0.0,0.0,0.0,0.0,0.0,0.0,0.48492903,0.0,-1.410205,0.0,0.0,0.0,0.0,0.0,-0.025656909,0.0,0.0,0.0,0.0,0.0,0.0,0.0,0.0,0.0,0.0,0.0,0.0,0.0,0.0,0.0,1.3026603,0.0,0.0,0.39972585,0.0,0.0,0.0,0.0,0.0,0.0,0.0,0.0,0.0,0.0,0.0,0.0,0.0,0.0,0.0,0.0,0.0,0.0,0.0,0.0,0.0,0.0,0.0,0.0,0.0,0.0,0.0,0.0,0.0,0.0,0.0,0.0,0.0,0.0,0.0,0.0,0.0,0.0,0.0,0.22187042,0.0,0.0,0.0,0.0,0.0,-0.09638989,0.0,0.0,0.0,0.0,0.0,0.0,0.0,0.0,0.0,0.0,0.0,0.0,0.0,0.0,0.0,0.0,0.0,-0.15740429,0.0,0.0,0.0,0.0,0.0,0.0,0.0,0.0,0.0,0.0,0.0,0.0,0.0,0.0,0.0,0.0,0.0,0.0,0.0,0.0,0.0,0.0,0.0,0.0,0.0,0.0,0.0,0.0,0.0,0.0,0.0,0.0,0.0,-0.16123986,0.0,0.0,0.0,0.0,0.0,0.0,0.0,0.0,0.0,0.0,0.0,0.0,0.0,0.0,0.0,0.0,0.0,0.0,0.0,0.0,0.0,0.0,0.0,0.0,0.0,0.0,0.0,0.0,0.0,0.0,0.0,0.0,0.0,0.0,0.0,0.0,0.0,0.0,0.0,0.0,0.0,0.0,0.0,0.0,0.0,0.0,0.0,0.0,0.0,-1.6152954,0.0,0.0,0.0,0.0,0.0,0.0,0.0,0.0,0.0,0.15050587,1.6144165,0.0,0.7950276,-0.0405141,0.0,0.0,0.0,0.0,0.0,-0.7965675,0.0,0.0,0.0,0.0,0.0,0.0,0.0,0.0,0.0,0.0,0.0,0.0,0.0,0.0,0.0,0.0,0.0,0.0,0.0,0.0,0.0,0.16213682,0.8346381,-0.36826697,0.0,0.0,0.0,0.0,0.0,0.0,0.0,0.0,0.0,0.0,0.0,0.0,0.0,0.0,0.0,0.0,0.0,0.0,0.0,0.0,0.0,1.4485149,0.0,0.0,0.0,0.0,0.0,1.7038324,0.0,-0.27821937,0.9564594,0.052063864,0.0,0.0,0.0,0.0,0.0,0.0,0.0,0.0,0.0,0.0,0.0,0.0,0.0,0.0,0.0,0.0,0.2964638,0.0,1.0780393,0.0,0.0,0.0,0.0,0.0,0.0,0.0,0.0,0.0,0.0,0.0,0.0,0.0,0.0,0.0,-0.3702299,0.0,0.0,0.0,0.0,0.0,0.0,0.43705603,0.0,0.0,0.0,0.0,0.0,0.0,0.0,-0.09900713,0.0,0.69932455,0.0,0.0,0.0,0.0,0.0,0.0,0.0,0.0,0.0,0.0,0.0,0.0,0.0,0.0,0.0,0.0,0.0,0.0,0.0,0.0,-0.01619996,0.0,0.0,0.0,0.0,0.0,0.0,0.32222077,0.0,0.0,0.0,0.0,0.0,0.0,0.0,0.0,0.0,0.0,0.0,-0.015650956,0.0,0.0,0.0,0.0,0.0,0.0,0.0,0.0,0.0,0.0,0.0,0.0,0.0,0.0,0.0,0.0,0.0798301,0.0,0.0,0.0,0.0,-0.13547093,0.0,-0.27512544,0.0,0.0,0.4561471,0.0,0.0,0.0,0.0,0.0,0.0,0.0,0.0,0.0,0.0,0.0,0.0,0.0,0.0,0.0,0.0,0.0,0.0,0.0,0.0,0.0,0.0,0.0,0.0,0.0,0.0,0.0,0.0,0.0,1.2037458,-0.8906689,0.0,0.0,0.0,0.0,-0.14563164,0.0,0.0,0.0,0.0,0.0,0.0,0.0,0.0,0.0,0.0,0.0,0.0,0.0,0.0,0.0,0.0,0.0,0.0,0.0,0.0,0.30459636,0.0,0.0,-0.0116583975,0.0,0.0,0.3947055,0.0,0.4104548,0.0,0.0,0.0,0.0,0.0,0.0,0.0,-0.3426709,0.0,0.0,0.0
id10003,0.0,0.0,0.0,0.24691874,0.0,0.0,0.29366744,-0.10587903,0.0,0.72598714,0.0,3.6737843,0.0,0.0,0.0,-0.31660086,0.0,0.0,0.0,0.0,0.0,0.0,0.0,0.0,0.0,0.0,0.0,0.0,0.0,0.0,0.0,0.0,0.0,0.0,0.0,0.0,0.0,0.0,0.0,0.0,0.0,0.0,0.0,0.0,0.0,0.0,0.0,0.0,0.0,0.80395365,0.0,1.6848056,0.0,0.0,0.0,0.0,0.0,-0.4038677,0.0,0.0,0.0,0.0,0.0,-0.07225275,0.0,0.0,0.0,0.0,0.0,0.0,0.0,0.0,0.0,0.0,0.0,0.0,0.0,0.0,0.0,-0.22979009,0.0,0.0,0.0,-0.63841474,0.0,0.52398133,0.0,0.0,0.0,0.0,-0.048337642,0.0,0.0,0.0,-0.055034578,0.0,-0.22023506,0.0,0.0,0.0,0.0,0.0,0.0,0.0,0.0,0.0,0.0,0.0,0.0,0.0,3.2785048,0.0,0.0,0.0,0.0,0.0,0.0,0.0,0.0,0.0,0.0,1.3008447,0.0,-0.19961248,0.0,0.0,0.0,0.0,0.0,0.0,0.0,0.0,0.0,0.0,0.09800004,-0.06885204,0.0,0.0,0.0,0.0,0.0,0.0,0.0,-0.074147604,1.0306977,0.0,0.0,0.0,0.0,0.0,0.0,0.0,0.0,0.0,0.0,0.0,0.0,1.1686192,0.0,0.0,0.0,0.0,0.0,0.0,0.0,0.0,0.0,0.0,0.0,0.6111633,0.0,0.0,0.0,0.0,0.0,0.0,0.0,0.0,0.0,0.0,0.0,-0.43208683,0.0,0.0,0.0,0.5148071,0.0,0.0,-0.23512854,0.0,0.0,0.0,0.0,0.0,0.0,0.0,0.0,0.0,0.0,1.1381369,0.0,0.0,0.0,0.0,-0.6892636,0.0,0.0,0.0,0.0,0.0,0.0,0.0,0.0,0.0,0.0,0.0,0.0,0.0,-0.4184768,0.0,-0.41136184,0.0,0.0,0.0,0.0,0.0,0.0,0.0,0.9364696,0.0,0.0,0.0,0.0,0.0,0.0,0.0,0.0,0.0,0.0,-0.19899087,0.0,0.0,0.0,0.0,0.0,0.0,0.0,0.0,0.0,0.18958282,-1.0848653,0.0,1.2758658,0.0,0.0,0.0,0.0,0.0,0.0,0.0,0.370156,0.0,0.0,0.0,-0.99665827,0.0,0.0,0.0,0.0,0.0,0.0,-0.21805663,0.0,0.0,0.0,0.0,0.0,0.0,0.0,0.0,0.0,0.0,0.0,0.0,0.0,0.0,0.0,0.0,0.0,0.52337223,0.0,0.0,0.0,0.0,0.0,0.0,0.0,0.0,0.0,0.0,0.0,0.0,0.0,0.0,0.0,0.0,0.0,0.0,0.0,0.0,0.0,0.0,0.0,0.0,0.0,0.0,0.0,0.0,0.0,-0.0055913776,0.0,0.0,0.0,0.0,1.0689055,0.0,0.0,0.0,0.748869,0.0,0.0,0.0,0.0,0.0,0.0,0.0,0.0,0.0,0.0,0.0,0.0,0.0,0.0,0.0,0.0,0.0,0.11830885,0.0,0.0,0.0,0.0,0.0,0.0,0.0,0.0,0.0,0.0,0.0,0.0,0.0,0.0,0.0,0.0,0.0,0.0,0.0,0.0,0.0,0.0,0.0,0.0,0.0,0.0,0.0,-0.2761261,0.0,0.0,0.30721307,0.0,0.0,0.0,0.0,0.0,0.0,0.0,0.0,0.088966586,0.0,-0.14149934,0.0,2.1850858,0.0,0.0,0.0,0.0,0.0,0.0,0.0,0.0,0.0,0.0,-0.399554,0.0,0.0,0.0,0.0,0.0,0.0,0.0,0.0,0.0,0.0,0.0,0.0,0.0,0.0,0.0,0.0,0.0,0.0,0.0,0.0,-0.116003804,0.0,0.0,0.0,0.0,0.0,0.0,0.0,0.0,0.0,0.0,0.0,0.0,0.0,0.0,0.0,0.5973737,0.0,0.0,0.0,0.909318,0.0,0.0,0.0,0.0,0.0,-0.28722665,0.0,0.0,0.0,0.0,0.0,0.0,0.0,0.0,0.0,0.0,0.0,0.0,0.0,0.0,0.041075524,0.0,0.0,-0.023744462,0.0,0.0,0.0,0.0,0.0,0.094259106,0.0,0.0,0.0,0.0,0.0,0.0,0.0,0.0,0.0,0.0,0.0,0.0,0.0,0.0,0.0,0.0,0.0,0.0,0.0,0.0,0.0,0.0,0.0,0.0,0.0,0.0,0.0,0.0,0.0,-0.08447761,0.0,-0.5072581,0.0,0.0,0.0,0.0,0.0,0.0,0.0,0.0,0.0,0.0,0.0,0.0,0.0,0.0,0.0,0.0,0.0,0.0,0.0,0.0,0.0,0.0,0.0,0.0,0.0,0.0,0.9565308,0.0,0.0,0.0,0.0,0.0,0.0,0.0,0.0,0.0,0.0,0.0,0.0,0.0,0.0,0.43567684,-0.24429025,0.0,0.0,0.41597727,0.0,0.0,0.0,0.0,0.0,1.5363399,0.0,0.0,0.0,0.0,0.0,0.0,0.0,0.0,0.0,0.0,0.0,-0.074803144,0.0,0.0,0.0,0.0,0.0,0.0,0.0,0.0,0.0,0.0,0.0,0.0,0.0,0.0,0.0,0.0,0.0,0.0,0.0,0.0,0.0,0.0,-0.22478378,0.0,0.0,0.0,0.32027215,0.0,0.0,0.0,0.0,-0.09605951,0.0,0.0,0.0,0.0,0.0,-0.31136417,0.0,0.0,0.0,0.0,0.0,0.0,0.0,0.0,0.0,0.0,0.0,0.0,0.0,0.0,0.0,0.0,0.0,0.0,0.0,0.0,0.0,0.0,0.0,0.0,0.0,0.0,0.12117032,0.0,0.0,0.0,-0.31209156,0.0,0.0,0.0,0.0,0.0,0.0,0.0,0.0,0.0,0.0,0.0,0.0,0.0,0.0,-0.008154058,0.0,0.0,0.0,0.0,0.0,0.21482818,0.0,0.0,0.0,0.0,0.0,0.0,0.0,0.0,0.0,0.0,0.0,0.0,0.0,0.0,0.0,-0.103332005,0.0,0.0,0.0,0.0,0.0,0.0,0.0,-0.021928743,0.0,0.0,0.0,0.0,0.0,0.0,0.0,0.0,0.0,0.0,0.0,0.0,0.0,0.0,0.0,0.0,0.0,0.0,0.0,0.0,0.0,0.0,-0.191269,0.0,0.0,0.0,0.0,0.108641334,0.0,0.0,0.0,0.0,0.0,0.0,-0.23733717,0.0,0.0,0.0,0.0,0.0,0.0,0.0,0.0,0.0,0.6058368,0.0,0.0,0.0,0.0,0.0,0.0,1.2257658,0.0,0.0,0.0,0.0,0.0,0.0,0.0,0.0,0.0,0.0,-0.13476077,0.0,0.0,0.0,0.0,0.0,0.0,0.0,0.0,0.0,0.0,0.0,0.0,0.0,0.0,0.0,0.0,0.0,0.0,0.0,0.0,0.08003593,0.0,0.0,0.0,0.0,0.0,0.0,0.0,0.0,0.0,0.2974536,0.0,0.0,0.0,0.0,0.0,0.0,0.0,0.0,0.0,0.0,0.0,0.0,0.0,-0.09024183,0.0,0.0,0.0,0.0,0.0,0.0,0.0,0.0,0.0,-0.04684631,0.0,0.0,0.0,0.0,0.0,0.0,0.0,0.0,0.0,0.0,0.0,0.0,0.0,0.0,0.0,-0.12684938,0.0,0.0,0.0,0.0,0.8136764,0.0,0.0,0.0,0.0,0.0,0.0,0.0,0.0,0.0,0.0,0.5269486,-1.1283978,0.0,0.0,0.0,0.0,0.0,0.0,0.0,0.0,0.0,0.0,0.0,0.0,0.0,0.0,0.0,0.0,-0.16141912,0.0,0.0,0.0,0.0,0.0,0.0,0.0,0.0,0.0,0.0,0.0,0.0,0.0,0.0,0.0,1.604409,0.0,0.0,0.0,0.0,0.0,0.0,0.0,0.0,0.0,0.0,0.0,0.0,0.0,0.7911278,1.7549386,0.0,-0.0942131,0.0,0.63979673,0.0,0.0,0.0,0.0,0.0,0.0,0.0,0.0,0.0,0.0,0.0,0.0,0.0,0.0,0.0,0.0,0.0,0.523616,0.0,0.0,0.0,0.0,0.0,0.0,0.0,0.0,0.0,0.0,0.0,0.0,0.0,0.0,0.0,1.0878867,0.28797808,0.0,0.0,0.0,0.0,0.0,0.0,0.0,-0.010297407,0.0,0.0,0.0,1.6803694,0.0,-0.105554014,0.0,0.0,0.0,0.0,0.0,0.0,0.0,0.0,0.0,0.0,0.0,0.0,0.0,0.0,0.0,0.0,0.0,0.0,0.0,0.0,0.0,0.0,0.0,0.0,0.0,0.0,0.0,0.0,0.0,0.0,0.0,-0.20122063,0.0,0.0,0.0,0.0,0.0,0.0,0.0,0.0,0.0,0.0,0.0,0.0,0.0,0.0,0.0,0.0,0.0,-1.2683003,0.5844392,0.0,0.0,0.0,0.0,0.0,0.0,0.0,0.0,0.0,0.0,0.0,0.0,0.0,0.0,0.0,0.0,0.0,0.0,0.0,0.0,0.0,0.0,0.0,0.0,0.0,0.0,0.0,0.0,0.0,0.0,0.0,0.0,-0.19100195,0.0,0.0,0.0,0.0,0.0,0.0,0.0,-0.107612245,0.0,0.5718106,0.0,0.0,-0.5699077,0.0,0.0,0.0,-0.22856818,0.0,1.8681378,0.0,0.0,0.0,0.0,0.0,0.0,0.2863777,0.0,0.0,0.0,0.0,0.0,0.0,0.0,0.0,0.0,0.0,0.0,0.0,0.0,0.0,0.0,0.0,0.0,0.0,0.0,0.0,0.0,0.0,0.0,0.0,0.0,0.0,0.0,0.0,0.54568154,0.0,0.0,0.0,0.0,0.0,0.0,0.0,0.0,0.0,0.0,0.0,0.0,0.0,0.33662274,0.0,0.0,0.0,0.0,2.5921056,0.0,0.0,0.0,0.0,0.0,0.0,0.0,0.0,0.0,0.0,0.033561625,0.0,0.0,0.0,0.0,0.0,0.0,0.0,0.0,0.0,0.0,0.0,0.0,0.0,0.0,0.0,0.0,0.31275257,0.0,0.0,0.0,0.0,0.0,0.0,0.0,-0.96079546,0.0,0.0,0.0,0.0,0.0,0.0,0.0,0.0,0.0,0.0,0.0,0.0,0.0,0.0,0.0,0.0,0.0,0.0,0.0,0.0,0.0,2.1938143,0.0,0.0,0.3898114,-0.09468966,0.0,0.0,0.0,0.0,0.0,0.0,0.0,-0.097727984,0.24645229,-0.40219685,0.0,0.0,0.0,0.0,0.0,0.0,0.0,0.0,0.0,0.0,0.0,0.0,0.0,-0.10247046,0.0,0.0,0.81650895,0.0,0.0,0.0,0.79036224,0.0,-0.18725409,0.7245784,0.0,0.0,0.0,0.0,-0.24432252,0.34248802,0.0,0.0,0.0,0.0,-0.4889033,0.0,0.0,0.0,-0.05480294,0.0,0.0,0.0,0.0,0.0,0.0,0.0,-0.4503596,0.0,0.0,0.15636232,0.0,0.0,0.0,0.0,0.0,0.0,0.0,0.0,0.42853695,0.0,0.0,0.0,0.0,0.0,1.7479454,0.0,0.0,0.0,0.0,0.0,0.0,0.0,0.0,0.0,0.0,0.0,0.0,0.0,0.0,0.0,-0.4999071,0.0,0.0,0.0,0.0,0.45031476,0.0,0.0,0.0,0.0,0.0,0.0,0.0,0.0,0.0,-0.27778944,-0.13652003,0.0,0.0,0.0,0.0,0.0,-1.2356573,0.0,0.0,0.0,0.0,0.0,0.0,0.0,0.0,-0.10942165,0.0,0.0,0.0,0.0,0.0,0.0,0.0,0.0,0.0,0.0,0.18255135,0.0,0.0,0.0,0.0,0.0,0.0,0.0,0.0,0.0,0.0,0.0,0.0,0.0,0.0,0.0,0.0,0.0,0.0,0.0,0.0,0.0,-0.120491855,0.0,0.0,0.0,0.0,0.0,-0.6832267,0.0,0.0,0.0,0.0,0.0,0.0,0.0,0.0,0.518423,0.0,0.08373018,0.0,0.0,0.71205646,0.0,0.0,0.0,0.0,0.0,0.0,0.004982972,0.0,0.0,0.0,0.0,0.0,0.0,0.0,0.0,-0.25285536,0.0,0.0,0.0,0.0,0.0,0.0,0.0,0.0,0.0,0.0,0.0,0.0,0.0,0.0,0.0,0.0,0.0,0.0,-0.07842053,-0.5515362,0.0,-0.9909833,0.0,0.33552822,0.0,0.0,0.0,0.0,-0.045115188,0.0,0.0,0.0,0.0,0.0,0.0,0.0,0.0,0.0,0.0,0.0,0.0,0.0,0.0,0.0,0.0,0.0,0.0,0.0,0.0,0.0,0.0,0.0,0.0,0.0,0.0,0.0,0.0,0.1851316,0.35679922,0.0,0.0,0.0,0.0,0.0,0.0,0.0,0.0,0.0,0.0,0.0,0.0,0.0,0.0,0.0,0.0,0.0,0.0,0.0,0.0,0.0,0.0,0.0,0.0,0.0,0.0,0.0,0.0,0.0,0.0,0.0,0.0,0.0,0.0,0.0,0.0,0.0,0.0,0.0,0.0,0.0,0.0,0.0,0.0,0.0,0.0,0.18602292,-0.7162555,0.0,0.0,0.0,0.0,-0.5911243,0.0,1.0557355,0.0,0.0,0.0,0.0,-0.2842295,0.0,1.1134919,0.0,0.0,0.0,-0.6689137,0.0,-0.87387055,0.0,0.0,0.0,0.0,0.0,0.0,0.0,0.0,0.0,0.0,-0.83415395,0.0,0.0,0.0,-0.67142296,0.0,0.0,0.0,0.0,0.0,0.0,0.0,0.0,0.29647356,0.0,0.2294672,0.0,0.0,0.0,0.0,0.0,0.0,0.0,0.9600685,0.0,0.0,0.0,0.0,0.0,0.0,0.0,0.0,0.0,0.0,0.0,0.3820891,0.0,0.0,0.0,0.0,0.3681497,0.0,0.19272572,0.32934165,0.0,0.0,0.0,-0.69382083,2.2388651,0.0,0.0,0.0,0.0,0.0,0.0,0.41902378,0.0,0.0,0.0,0.0,0.0,0.0,0.0,0.0,0.0,0.0,0.0,-0.70513844,0.0,-0.24202761,-0.2551253,0.0,0.0,0.0,0.0,0.0,0.0,0.0,0.0,0.0,0.23152626,0.0,0.0,0.0,0.0,0.0,0.0,0.0,0.0,0.0,-0.49326506,0.0,-0.60253775,0.0,0.0,0.0,0.0,0.55780274,0.0,0.0,-0.0012420416,0.0,0.0,0.0,0.07926681,0.0,0.0,0.0,0.0,0.0,0.0,-0.15626414,0.0,0.0,0.0,0.0,0.0,0.0,0.0,0.0,0.3106441,0.0,0.0,0.0,0.0,0.0,0.0,0.14216125,0.0,0.0,0.0,0.0,0.0,0.0,0.0,0.0,0.0,0.0,0.0,0.0,0.0,0.0,0.0,0.0,0.0,0.0,0.0,0.0,0.0,0.0,0.0,0.0,0.0,0.0,0.0,0.21532704,0.0,0.0,0.0,0.0,0.0,0.0,0.0,0.0,0.0,0.0,0.0,0.23828226,0.0,0.0,0.0,0.0,0.0,0.0,0.0,0.0,0.0,0.0,0.0,0.0,0.11470065,-0.012225784,0.0,0.0,0.0,0.0,0.0,0.0,0.0,0.0,0.0,0.0,0.0,0.0,0.0,2.2877848,0.0,0.0,0.0,0.0,0.0,0.0,-0.04300508,0.0,0.0,0.0,0.0,0.0,0.0,0.0,0.0,0.0,0.0,0.0,0.0,1.364132,0.0,0.0,0.0,0.0,0.0,-0.2888016,0.0,0.0,0.0,0.0,0.0,0.0,0.0,0.0,0.0,0.0,0.0,0.0,0.0,0.0,0.0,0.0,0.0,0.0,0.0,0.0,0.0,0.0,0.0,0.0,0.0,0.0,0.0,0.16980703,0.0,0.0,0.0,0.0,0.0,0.0,0.0,0.0,0.0,0.0,0.0,0.0,0.0,0.0,0.0,0.0,0.0,0.0,0.0,-0.5296916,0.0,-0.93144184,0.0,0.0,0.0,0.0,0.0,0.0,0.0,0.0,0.0,0.0,0.0,-0.53911364,0.0,0.0,0.0,0.0,1.1184195,0.0,-0.33245265,0.0,0.0,0.0,0.0,0.0,-0.04235209,0.0,0.0,0.694313,1.365243,0.0,0.0,0.0,0.0,0.0,0.0,-0.45867783,0.0,0.0,0.0,0.0,0.0,-0.2499733,0.0,0.0,0.0,0.0,0.0,0.0,0.0,0.0,0.0,0.0,0.0,0.0,0.0,0.0,0.07675781,0.0,0.0,0.0,0.0,1.0046852,0.0,0.0,0.0,0.0,0.0,0.0,0.0,0.0,0.0,0.0,0.0,0.0,0.0,0.0,0.0,0.0,0.0,0.0,0.0,0.0,0.0,0.0,0.0,0.0,0.0,0.0,0.0,0.0,0.0,0.089748584,0.0,0.0,0.0,0.0,0.0,0.0,0.0,0.0,0.0,0.0,0.0,0.0,0.0,0.0,0.0,0.0,0.0,0.0,0.0,0.0,0.0,0.0,-1.0334598,0.0,0.0,0.0,0.0,0.7940571,0.0,0.0,0.0,0.0,0.0,0.0,0.0,0.0,0.0,0.0,0.0,0.0,0.0,0.0,0.0,1.5897971,0.11716855,0.0,0.0,0.0,0.0,0.0,0.0,0.0,0.0,0.0,0.0,0.0,0.0,0.0,0.0,-0.018322745,0.0,0.0,0.0,0.0,0.0,0.0,0.0,0.0,0.0,0.0,0.0,0.17315727,1.536543,0.0,0.0,0.0,0.0,0.0,0.0,0.0,0.0,0.0,0.0,1.9207873,0.0,0.0,0.0,0.0,0.0,-0.38004488,1.4191009,0.0,0.0,0.0,0.0,0.0,1.1319144,0.0,0.0,0.0,0.0,0.0,0.0,0.0,0.0,0.0,0.5066206,0.0,0.0,0.0,0.0,-1.1071705,0.0,0.0,0.0,0.0,0.0,0.0,0.0,0.0,0.0,0.0,0.0,0.0,0.0,0.0,-0.037873402,0.0,0.0,0.0,0.0,0.0,0.0,0.0,0.0,0.0,0.0,0.0,0.0,0.0,0.0,0.0,0.0,0.0,0.0,0.0,0.0,0.7492087,0.0,0.0,0.0,0.0,0.0,0.0,0.0,0.0,0.0,-0.072852604,0.0,0.0,0.0,0.0,0.0,0.0,0.0,0.0,0.0,0.0,0.0,0.0,0.0,0.0,0.0,0.0,0.0,0.0,0.0,0.0,-0.87729764,0.0,0.0,0.0,0.0,0.0,0.0,0.0,0.0,0.0,0.0,0.0,0.0,0.0,0.0,0.0,0.0,0.0,0.0,0.0,0.0,0.0,0.0,0.0,-0.009750597,0.0,0.0,0.0,0.0,0.0,0.0,0.0,0.0,0.0,0.0,0.0,0.96115243,0.0,0.0,0.0,0.0,0.0,0.0,0.0,1.2642492,0.0,0.0,0.0,0.0,0.0,0.40484834,0.0,0.0,0.0,0.0,0.47415403,-0.3540559,0.0,-0.23937954,-0.6534878,0.0,0.0,0.0,0.0,-0.1498877,0.0,0.0,0.0,0.0,0.0,0.0,0.0,0.0,0.0,-0.859674,0.0,0.0,0.0,0.0,0.0,0.0,0.0,0.0,0.0,0.0,0.0,0.0,0.0,0.0,0.0,0.0,0.13684976,0.0,1.9897461,0.0,0.0,0.0,0.0,0.0,0.0,0.0,0.0,-0.102090836,0.597853,0.0,0.0,0.0,0.0,0.0,0.0,0.0,0.0,0.0,0.0,0.0,0.0,0.0,0.0,0.0,0.0,0.0,0.0,0.0,0.0,0.0,0.0,0.0,0.0,0.5483693,0.0,0.0,0.0,0.0,0.0,0.0,0.0,0.0,0.0,0.0,0.0,0.0,0.0,0.0,0.0,-0.04869004,0.0,0.0,0.0,0.0,0.0,0.0,0.0,0.0,0.0,0.0,0.48083797,0.0,0.0,0.0,0.0,0.0,0.0,1.3910692,0.0,0.060686734,0.0,0.0,0.0,0.0,0.0,0.0,0.0,0.0,0.0,0.0,0.0,0.0,0.0,0.0,0.0,0.0,0.0,0.0,0.0,0.0,0.0,0.0,0.0,0.0,0.0,0.0,0.0,0.0,0.0,0.0,-0.028698325,0.0,0.0,0.0,0.0,0.0,0.0,0.0,0.0,0.0,0.0,0.0,0.0,0.0,0.0,-0.3540531,-0.2412181,0.0,0.0,0.12693527,0.0,0.0,0.45731843,0.0,-0.7282682,0.0,0.0,0.0,0.0,0.0,0.0,0.0,0.0,0.0,0.0,0.0,0.0,0.0,0.0,0.0,0.0,0.0,0.0,0.0,0.0,0.0,0.0,0.0,1.343564,0.0,0.0,0.0,0.0,0.0,0.0,0.0,0.0,0.0,0.0,0.0,1.4532163,-0.022074869,0.0,0.0,0.0,0.0,0.0,-1.3755094,0.0,0.0,0.0,0.0,0.0,0.0,-0.16403441,0.0,0.0,-0.13313557,0.94080013,0.6465276,0.7335086,0.27583164,0.0,0.0,0.0,0.0,0.0,0.0,0.0,0.0,0.0,-0.81760484,0.0,0.0,0.0,0.0,0.0,-0.11391241,-0.55617505,0.0,0.0,0.0,0.0,0.0,0.0,0.0,0.0,0.0,0.0,0.0,0.0,0.0,0.0,0.0,0.0,0.0,0.0,0.049979568,0.0,0.39052084,-0.005173771,-0.40406835,0.0,0.0,0.0,0.35706118,0.0,0.0,0.0,0.0,0.0,0.0,0.0,0.0,0.0,0.0,0.0,0.82272077,0.0,0.0,0.0,0.0,0.0,-0.102579094,0.0,0.0,0.0,0.0,0.0,0.0,0.0,0.0,0.0,0.0,0.0,0.0,0.0,0.0,0.6342755,0.7496889,0.0,0.0,0.0,0.0,0.0,0.0,0.0,0.0,0.0,0.0,0.0,0.0,0.0,0.0,0.0,0.0,0.0,0.0,0.0,0.0,0.0,0.0,0.0,0.0,0.0,0.0,0.0,0.0,0.0,0.0,0.0,-0.0068693175,0.0,0.0,0.0,0.0,0.0,0.24983375,0.0,-0.27875808,0.0,-1.3846321,0.0,-0.72466576,0.0,-0.0006512801,0.0,0.0,0.6287103,0.0,0.0,-0.028925091,0.0,0.0,0.0,0.0,0.0,0.0,0.0,0.0,0.0,-0.020297104,0.0,0.0,0.0,0.0,0.0,0.0,0.0,0.0,0.0,0.0,0.0,-0.16604269,0.72388214,0.0,0.0,0.0,2.3366697,0.0,0.0,0.0,0.0,0.0,0.0,0.95930934,0.0,0.0,0.0,0.0,0.0,0.0,0.0,0.0,0.0,-1.2486044,0.0,0.0,0.0,0.0,0.0,0.0,0.0,0.0,0.0,0.0,0.0,0.14129148,0.0,0.0,0.0,0.0,0.0,0.17943923,3.3285172,0.0,-0.11905711,0.0,0.0,0.7529416,0.0,0.0,0.0,0.0,0.0,0.0,0.0,0.0,0.0,0.0,0.45725584,0.0,0.0,0.0,-0.043042097,0.0,0.0,0.0,0.0,0.0,0.0,0.0,0.0,0.0,0.0,0.0,0.28128037,0.062485363,0.0,0.0,0.0,0.0,0.0,0.0,0.0,0.0,-0.20879775,0.0,0.0,0.0,0.0,0.0,0.0,0.0,0.0,0.0,0.0,-0.086314,0.0,0.0,0.0,0.0,0.0,0.0,0.12556444,0.0,0.0,0.0,0.0,0.0,0.0,2.0209067,0.71336114,0.0,0.0,0.0,-0.19026257,0.0,0.0,0.0,0.0,0.0,0.0,0.0,-0.46578595,0.0,0.0,0.0,0.0,0.0,-0.7388384,0.0,0.0,0.0,0.0,2.3943918,0.0,0.0,0.0,0.0,0.0,0.0,0.0,-0.36083552,0.0,0.9563938,0.13954277,0.0,-0.11482113,0.0,0.0,0.0,0.0,0.0,0.0,0.0,0.0,0.0,0.0,3.6963513,0.0,0.0,0.0,0.0,0.036794323,0.0,0.0,0.0,0.0,0.11843094,0.0,1.1133848,0.0,0.0,0.0,0.0,0.0,0.0,0.0,0.70420146,0.0,0.0,0.0,0.0,0.0,0.4198114,0.0,0.0,0.0,0.0,-0.11884409,0.0,0.0,0.0,0.0,0.0,0.0,0.0,0.0,0.0,0.0,0.0,0.0,0.0,0.0,0.0,0.0,0.0,0.0,0.0,0.2051798,0.0,0.0,0.0,0.0,0.0,0.0,0.0,0.0,0.0,0.0,0.0,0.0,0.0,0.0,0.0,-0.66345394,0.0,0.0,0.0,0.0,0.0,0.0,0.0,0.0,0.0,0.0,-0.83639115,0.0,0.49969086,0.0,0.0,0.0,0.0,0.0,0.0,0.0,0.0,0.0,0.0,0.0,0.0,0.0,0.0,-0.6728242,0.0,0.0,0.0,0.0,0.0,0.0,0.0,0.0,0.0,0.0,-0.34002674,0.11466115,0.0,0.0,0.0,0.0,0.0,0.0,-1.0896407,0.0,0.0,0.0,0.0,0.0,0.0,0.0,0.0,0.0,1.1353015,0.0,0.0,0.0,0.0,0.0,0.0,0.0,0.0,0.0,0.0,0.0,0.0,0.0,0.0,-0.17532301,0.0,0.0,0.0,0.0,-0.07834003,0.0,0.0,-0.33813772,0.0,0.0,0.0,0.0,0.23271747,0.0,0.0,0.0,0.0,0.0,0.0,0.0,0.0,0.0,0.0,0.0,0.0,0.0,0.0,-0.41086644,0.0,0.0,0.0,0.033189278,0.25196028,1.5586538,0.0,0.0,0.0,0.0,0.0,0.0,0.0,0.0,0.0,-0.14773533,0.0,-0.18604392,0.0,0.0,0.0,0.8525576,0.0,0.0,0.0,0.06808127,-0.14990371,0.0,0.0,0.0,0.0,0.0,-1.1611333,0.0,0.0,0.0,0.0,0.0,1.9107274,0.10709996,0.0,0.0,0.0,0.0,0.0,0.0,0.0,0.0,0.0,0.0,0.0,0.0,0.0,0.0,0.0,0.0,0.0,0.0,0.0,0.0,0.0,0.0,0.0,0.0,0.0,0.0,0.0,0.0,0.9734687,0.0,0.0,0.0,0.0,0.0,0.0,-0.39659587,-0.35772339,0.0,0.0,0.0,0.0,0.0,0.0,0.0,0.0,0.2743355,0.0,0.0,0.0,0.0,2.0776677,0.0,-0.19159967,0.0,0.0,-0.26005223,0.0,-0.00094959326,0.0,0.0,0.0,-0.89977866,0.0,-0.087822594,0.0,0.0,-0.29944956,0.0,0.0,0.0,0.0,0.0,0.0,-0.0013301199,0.0,-0.021215225,0.0,0.0,0.0,0.0,0.0,0.056856494,0.0,-0.00089091185,0.0,0.0,0.0,0.0,0.0,0.0,0.0,0.0,0.0,0.0,0.0,0.0,0.0,0.0,0.0,0.0,0.0,0.0,0.0,0.0,0.0,0.0,0.0,0.0,0.0,0.0,0.0,0.0,0.0,0.0,0.18137091,0.0,0.0,-0.25088695,0.0,0.0,0.0,0.0,-0.18892665,0.0,0.0,0.0,0.0,0.0,0.0,0.0,0.0,0.0,0.0,0.01769407,0.0,0.0,0.0,0.0,0.2569268,0.0,0.0,0.0,0.0,0.0,0.0,0.0,0.0,0.0,0.0,-0.61253566,0.0,0.0,0.0,0.0,0.0,-0.26953033,0.0,0.0,0.0,0.0,0.0,0.0,0.0,0.0,0.0,0.0,0.0,0.5856915,0.0,0.0,0.0,0.019071829,0.0,0.0,0.0,0.0,0.0,0.0,0.0,0.6769671,-0.17423983,0.0,0.0,0.0,0.0,0.0,0.03708129,0.0,0.0,0.0,0.0,0.0,0.0,0.0,-1.0841889,0.0,0.0,0.0,1.2417322,-0.2044009,0.0,0.0,-0.83376116,0.0,0.0,0.0,-0.11871051,0.33016878,0.0,0.0,0.0,-0.20194256,0.0,0.0,0.0,0.0,0.9697681,0.0,0.8616667,0.0,0.0,-0.08250264,0.0,0.0,0.0,0.0,-0.19659334,0.0,0.0,0.0,0.0,0.0,0.0,0.0,0.0,0.0,0.0,0.0,0.0,0.0,0.0,0.0,0.0,0.0,0.0,0.0,-0.44141272,0.0,0.0,0.0,0.0,0.0,0.0,0.0,0.0,0.0,0.0,0.0,0.0,0.0,0.0,0.0,-0.27244502,0.0,0.0,0.0,0.0,0.0,1.1036172,0.0,0.0,-0.07643645,0.0,0.6931457,0.0,0.0,0.0,-0.7008349,0.0,0.0,0.7133017,0.0,0.0,0.0,0.0,0.0,0.0,0.0,0.35499045,0.0,0.0,-0.66425765,0.0,0.0,-0.0991083,0.0,0.0,0.0,0.47965953,0.0,-0.34828618,0.0,0.0,0.0011846075,0.0,0.0,0.0,0.0,0.0,0.0,0.0,0.0,0.0,0.0,0.0,0.0,0.0,0.0,-0.51063603,0.0,0.0,0.0,0.0,0.0,0.0,0.0,0.0,1.6076746,0.0,0.0,0.0,0.29393646,0.0,0.018202301,0.0,0.0,0.0,0.0,0.0,0.0,0.0,0.0,1.0954303,0.0,0.0,0.3035765,0.0,0.0,0.0,0.0,0.0,0.0,0.0,0.0,0.0,0.0,0.0,0.0,0.0,0.0,0.0,0.0,0.0,0.0,0.0,0.0,0.0,0.0,-0.9123758,0.0,0.0,-0.60861284,0.0,-0.2849335,0.0,0.0,0.0,0.36264586,0.0,0.0,0.0,0.0,0.0,0.0,0.0,0.0,0.0,0.0,-0.11407894,0.0,0.0,0.0,0.0,0.0,0.0,0.0,0.0,0.0,0.0,0.0,0.0,0.0,0.9205538,0.0,0.0,0.0,0.3425943,0.0,0.0,0.0,0.0,0.0,0.0,0.0,0.0,0.0,0.0,0.0,0.0,0.0,0.0,0.0,0.0,0.0,0.0,0.0,0.0,0.0,0.0,-1.1274284,-0.28232062,-0.15718961,0.0,0.0,0.0,0.0,0.0,0.0,0.0,0.0,0.0,0.0,0.0,0.0,-1.3558873,0.0,0.0,0.0,0.0,0.2890368,0.0,0.0,0.0,0.0,0.0,0.0,0.0,0.0,0.30316842,0.0,0.0,0.0,0.0,0.0,0.0,0.0,0.0,0.0,0.0,0.0,0.0,0.0,-0.21906799,0.0,0.0,0.0,0.127486,0.0,0.0,0.0,-0.11382306,0.0,0.0,-0.2798843,0.0,-0.71555954,0.0,0.0,0.6562375,0.0,0.0,0.0,0.0,0.0,0.0,0.0,0.0,0.0,0.0,0.0,0.0,0.0,0.0,0.0,0.0,0.0,0.0,0.0,0.0,0.0,0.18239032,0.3132059,0.0,0.0,0.0,0.15267383,0.0,0.0,0.0,0.0,0.0,-0.13547035,0.0,0.0,0.0,0.0,0.0,0.0,0.0,0.0,0.0,0.0,0.0,0.0,0.0,0.0,0.0,0.0,0.0,0.0,0.0,-0.63453984,0.0,0.0,0.0,0.0,0.0,0.0,0.0,0.42447743,0.0,0.0,0.0,0.0,0.0,0.0,0.0,0.0,0.0,0.0,0.0,0.0,0.0,0.004574359,0.0,0.0,0.0,0.0,0.0,0.0,0.0,0.0,0.0,0.0,0.0,0.0,0.0,0.0,0.0,0.0,0.2643068,0.0,0.0,-0.49817717,0.0,0.0,0.0,0.0,0.0,0.6290284,0.0,0.0,0.16902149,0.0,0.9449512,0.0,0.0,0.0,1.1556016,0.0,0.0,0.0,0.5014342,0.0,0.0,0.0,0.0,0.0,0.28937948,0.0,0.0,0.0,0.0,0.0,0.0,0.0,-0.3319293,0.0,0.0,0.0,0.12508418,0.0,0.0,0.0,0.0,-0.14208174,0.0,0.0,0.0,-0.42203525,0.0,0.0,0.0,0.0,0.0,0.0,0.0,0.0,0.0,0.115661144,0.0,0.0,0.0,0.0,0.0,0.0,0.0,0.0,0.0,0.0,0.0,0.0,0.0,0.0,0.0,0.0,0.0,0.0,0.0,0.0,0.0,0.0,0.0,-0.5399645,0.0,0.0,0.0,0.0,0.0,0.0,0.0,0.0,0.0,0.0,0.0,0.0,0.0,0.0,0.0,0.0,-0.2137851,0.0,0.0,0.0,0.0,0.0,0.0,0.0,0.0,0.0,0.0,0.0,0.0,0.0,0.0,0.0,0.0,0.0,0.0,0.0,0.0,0.0,0.0,0.0,0.0,0.0,0.0,0.0,0.0,0.0,0.0,0.0,0.0,0.0,0.0,0.0,-1.0078553,0.2979729,0.0,0.0,0.0,0.0,1.8269517,0.0,0.0,0.0,0.0,0.0,1.3082794,0.0,0.0,0.0,-0.5030606,0.0,0.0,-0.100199044,0.0,0.0,0.0,0.0,0.0,0.0,0.0,0.0,0.0,0.0,0.0,-0.35627732,0.0,0.0,0.0,0.1686604,0.0,0.0,0.0,0.0,0.0,0.0,0.0,0.0,0.0,0.0,0.0,0.0,0.0,0.0,0.0,0.0,0.0,0.0,0.0,-0.5343731,0.0,0.0,0.0,0.0,0.0,0.0,0.0,-0.028859556,0.0,0.0,0.0,0.0,0.0,0.0,0.0,0.0,0.0,0.0,0.0,0.0,0.0,0.0,0.0,0.0,0.0,0.0,0.0,0.0,0.084927104,0.0,0.0,0.0,0.0,-0.5262924,0.0,0.0,-0.23772092,-0.17802407,0.0,0.0,0.0,-0.5639113,0.30627912,0.0,0.0,0.0,0.0,0.0,0.0,0.19096784,0.0,0.0,0.0,1.9882114,0.0,0.0,0.0,0.0,0.0,0.0,0.71370286,0.0,-0.5952353,0.0,0.0,0.0,0.0,0.0,-0.06997766,0.0,0.0,0.0,0.0,0.0,0.0,0.0,0.0,0.0,0.0,0.0,0.0,0.0,0.0,0.0,-0.63023686,0.0,0.0,-0.30743054,0.0,0.0,0.0,0.0,0.0,0.0,0.0,0.0,0.0,0.0,0.0,0.0,0.0,0.0,0.0,0.0,0.0,0.0,0.0,0.0,0.0,0.0,0.0,0.0,0.0,0.0,0.0,0.0,0.0,0.0,0.0,0.0,0.0,0.0,0.0,0.0,0.0,0.0,0.0,0.045903783,0.0,0.0,0.0,0.0,0.0,0.0,0.0,0.0,0.0,0.0,0.0,0.0,0.0,0.0,0.0,0.0,0.0,0.0,0.0,0.0,0.0,0.0,0.0,-0.15204732,0.0,0.0,0.0,0.0,0.0,0.0,0.0,0.0,0.0,0.0,0.0,0.0,0.0,0.0,0.0,0.0,0.0,0.0,0.0,0.0,0.0,0.0,0.0,0.0,0.0,0.0,0.0,0.0,0.0,0.0,0.0,0.0,0.0,-0.69965667,0.0,0.0,0.0,0.0,0.0,0.0,-0.07450892,0.0,0.0,0.0,0.0,0.0,0.0,0.0,0.0,0.0,0.0,0.0,0.2572836,0.0,0.0,0.0,0.0,0.0,0.0,0.0,0.0,0.0,0.0,0.0,0.0,0.0,0.0,0.0,0.0,0.0,0.0,0.0,0.22592111,0.0,0.0,0.0,0.0,0.0,0.0,0.0,0.0,0.0,0.0,-0.60056657,0.0,-0.0844329,0.0,0.0,0.0,0.0,0.06670086,0.0,0.0,0.0,-0.17413567,0.0,-0.045102898,0.0,0.0,0.0,0.0,0.16124506,0.0,-1.0382079,0.0,0.0,0.0,0.0,0.0,0.0,0.0,0.0,0.0,0.0,0.0,0.0,0.20466118,0.0,0.0,0.0,0.0,0.0,0.0,0.0,0.0,1.0702094,0.0,0.69870174,0.0,0.0,0.0,0.0,0.0,0.0,0.0,0.0,0.0,0.0,0.0,0.0,0.0,0.0,0.0,0.0,0.0,0.0,0.0,0.0,0.0,0.8656753,0.0,0.0,0.0,0.0,0.0,0.69886786,0.0,-0.073165946,2.0530293,0.48227823,0.0,0.0,0.0,0.0,0.0,0.0,0.0,0.0,0.0,0.0,0.0,0.0,0.0,0.0,0.0,0.0,-0.30797252,0.0,1.3977026,0.0,0.0,0.0,0.0,0.0,0.0,0.0,0.0,0.0,0.0,0.0,0.0,0.0,0.0,0.0,-0.21945612,0.0,0.0,0.0,0.0,0.0,0.0,-0.44217184,0.0,0.0,0.0,0.0,0.0,0.0,0.0,-0.16643433,0.0,0.0,0.0,0.0,0.0,0.0,0.0,0.0,0.0,0.0,0.0,0.0,0.0,0.19393976,0.0,0.0,0.0,0.0,0.0,0.0,0.0,0.0,0.02278676,0.0,0.0,0.0,0.0,0.0,-0.06950701,-0.7832013,0.0,0.0,0.0,0.0,0.0,0.0,0.0,0.0,0.0,0.0,0.0,-0.08189807,0.0,0.0,0.0,0.0,0.0,0.0,0.0,0.0,0.0,0.0,0.0,0.0,0.0,0.0,0.5274482,0.0,0.0,0.0,0.0,0.0,0.0,-0.04985796,0.0,-0.004750321,0.0,0.0,0.0,0.0,0.0,0.0,0.0,0.0,0.0,0.22880547,0.0,0.0,0.0,0.0,0.0,0.0,0.0,0.0,0.0,0.0,0.0,0.0,0.0,0.0,0.0,0.0,0.0,0.0,0.0,0.0,0.0,0.0,0.52313924,-0.43721682,0.0,0.0,0.0,0.0,-0.011031538,0.0,0.0,0.0,0.0,0.0,0.0,0.0,0.0,0.0,0.0,0.0,0.0,0.8888726,0.0,0.0,0.0,0.0,0.0,0.0,0.0,0.20623016,0.0,0.0,-0.3297446,0.0,0.0,1.6641059,0.0,0.52477914,0.0,0.0,0.0,0.0,0.0,0.0,0.0,-0.27501473,0.0,0.0,0.0
